=== Run information ===

Scheme:       weka.classifiers.trees.J48 -U -M 2
Relation:     AV2
Instances:    20000
Attributes:   17
              lettr
              x-box
              y-box
              width
              high
              onpix
              x-bar
              y-bar
              x2bar
              y2bar
              xybar
              x2ybr
              xy2br
              x-ege
              xegvy
              y-ege
              yegvx
Test mode:    10-fold cross-validation

=== Classifier model (full training set) ===

J48 unpruned tree
------------------

x-ege <= 1
|   y-ege <= 4
|   |   y-bar <= 8
|   |   |   x2ybr <= 3
|   |   |   |   y2bar <= 3: A (48.0)
|   |   |   |   y2bar > 3
|   |   |   |   |   xybar <= 10: L (563.0/2.0)
|   |   |   |   |   xybar > 10: J (144.0/1.0)
|   |   |   x2ybr > 3
|   |   |   |   xegvy <= 7
|   |   |   |   |   y-ege <= 2
|   |   |   |   |   |   x2bar <= 0
|   |   |   |   |   |   |   y-bar <= 6: I (8.0)
|   |   |   |   |   |   |   y-bar > 6: J (4.0)
|   |   |   |   |   |   x2bar > 0: J (396.0)
|   |   |   |   |   y-ege > 2
|   |   |   |   |   |   xy2br <= 10: I (7.0/1.0)
|   |   |   |   |   |   xy2br > 10: C (42.0)
|   |   |   |   xegvy > 7
|   |   |   |   |   xy2br <= 9
|   |   |   |   |   |   x-ege <= 0
|   |   |   |   |   |   |   x2ybr <= 5
|   |   |   |   |   |   |   |   y-ege <= 0: J (3.0)
|   |   |   |   |   |   |   |   y-ege > 0: I (16.0)
|   |   |   |   |   |   |   x2ybr > 5: I (549.0)
|   |   |   |   |   |   x-ege > 0
|   |   |   |   |   |   |   xybar <= 11
|   |   |   |   |   |   |   |   xegvy <= 9
|   |   |   |   |   |   |   |   |   y2bar <= 5
|   |   |   |   |   |   |   |   |   |   high <= 1: B (8.0/1.0)
|   |   |   |   |   |   |   |   |   |   high > 1: P (2.0)
|   |   |   |   |   |   |   |   |   y2bar > 5
|   |   |   |   |   |   |   |   |   |   xy2br <= 8
|   |   |   |   |   |   |   |   |   |   |   x-bar <= 6
|   |   |   |   |   |   |   |   |   |   |   |   y-box <= 3: E (3.0)
|   |   |   |   |   |   |   |   |   |   |   |   y-box > 3: S (2.0)
|   |   |   |   |   |   |   |   |   |   |   x-bar > 6: S (26.0/1.0)
|   |   |   |   |   |   |   |   |   |   xy2br > 8: E (12.0)
|   |   |   |   |   |   |   |   xegvy > 9: I (7.0/1.0)
|   |   |   |   |   |   |   xybar > 11
|   |   |   |   |   |   |   |   xybar <= 13: P (17.0/1.0)
|   |   |   |   |   |   |   |   xybar > 13: J (3.0)
|   |   |   |   |   xy2br > 9
|   |   |   |   |   |   x2bar <= 3
|   |   |   |   |   |   |   x-ege <= 0: I (12.0)
|   |   |   |   |   |   |   x-ege > 0: E (3.0/1.0)
|   |   |   |   |   |   x2bar > 3
|   |   |   |   |   |   |   xy2br <= 10
|   |   |   |   |   |   |   |   xegvy <= 9: G (5.0/1.0)
|   |   |   |   |   |   |   |   xegvy > 9: C (4.0)
|   |   |   |   |   |   |   xy2br > 10: C (294.0/1.0)
|   |   y-bar > 8
|   |   |   x2ybr <= 8
|   |   |   |   x2bar <= 2
|   |   |   |   |   x2bar <= 0: I (17.0/1.0)
|   |   |   |   |   x2bar > 0
|   |   |   |   |   |   xegvy <= 8: J (6.0/1.0)
|   |   |   |   |   |   xegvy > 8
|   |   |   |   |   |   |   x-ege <= 0: P (4.0/1.0)
|   |   |   |   |   |   |   x-ege > 0
|   |   |   |   |   |   |   |   y-ege <= 2: F (64.0)
|   |   |   |   |   |   |   |   y-ege > 2
|   |   |   |   |   |   |   |   |   width <= 4: I (2.0/1.0)
|   |   |   |   |   |   |   |   |   width > 4
|   |   |   |   |   |   |   |   |   |   x-box <= 3: F (3.0)
|   |   |   |   |   |   |   |   |   |   x-box > 3: P (3.0/1.0)
|   |   |   |   x2bar > 2
|   |   |   |   |   xy2br <= 5
|   |   |   |   |   |   xybar <= 12
|   |   |   |   |   |   |   xegvy <= 8: F (3.0)
|   |   |   |   |   |   |   xegvy > 8
|   |   |   |   |   |   |   |   y-ege <= 1: F (2.0)
|   |   |   |   |   |   |   |   y-ege > 1
|   |   |   |   |   |   |   |   |   xy2br <= 4: P (339.0/1.0)
|   |   |   |   |   |   |   |   |   xy2br > 4
|   |   |   |   |   |   |   |   |   |   xybar <= 9: P (28.0)
|   |   |   |   |   |   |   |   |   |   xybar > 9
|   |   |   |   |   |   |   |   |   |   |   x-ege <= 0: P (3.0)
|   |   |   |   |   |   |   |   |   |   |   x-ege > 0: F (3.0)
|   |   |   |   |   |   xybar > 12
|   |   |   |   |   |   |   y-ege <= 2
|   |   |   |   |   |   |   |   x-ege <= 0: P (6.0/1.0)
|   |   |   |   |   |   |   |   x-ege > 0
|   |   |   |   |   |   |   |   |   x-bar <= 6: F (48.0)
|   |   |   |   |   |   |   |   |   x-bar > 6: P (2.0)
|   |   |   |   |   |   |   y-ege > 2: P (31.0)
|   |   |   |   |   xy2br > 5
|   |   |   |   |   |   x-ege <= 0: F (11.0)
|   |   |   |   |   |   x-ege > 0
|   |   |   |   |   |   |   y-ege <= 1: J (2.0)
|   |   |   |   |   |   |   y-ege > 1
|   |   |   |   |   |   |   |   x-bar <= 6: C (11.0/1.0)
|   |   |   |   |   |   |   |   x-bar > 6: S (2.0)
|   |   |   x2ybr > 8
|   |   |   |   x2bar <= 3
|   |   |   |   |   y-bar <= 11
|   |   |   |   |   |   x2ybr <= 9
|   |   |   |   |   |   |   yegvx <= 5
|   |   |   |   |   |   |   |   xybar <= 10
|   |   |   |   |   |   |   |   |   y-bar <= 10
|   |   |   |   |   |   |   |   |   |   x-ege <= 0: T (3.0/1.0)
|   |   |   |   |   |   |   |   |   |   x-ege > 0: Y (9.0)
|   |   |   |   |   |   |   |   |   y-bar > 10: F (2.0/1.0)
|   |   |   |   |   |   |   |   xybar > 10: T (65.0/1.0)
|   |   |   |   |   |   |   yegvx > 5
|   |   |   |   |   |   |   |   x-ege <= 0: P (2.0)
|   |   |   |   |   |   |   |   x-ege > 0: F (31.0/1.0)
|   |   |   |   |   |   x2ybr > 9
|   |   |   |   |   |   |   xegvy <= 10
|   |   |   |   |   |   |   |   xegvy <= 8: F (10.0)
|   |   |   |   |   |   |   |   xegvy > 8
|   |   |   |   |   |   |   |   |   x2bar <= 2
|   |   |   |   |   |   |   |   |   |   y-ege <= 0: Y (30.0)
|   |   |   |   |   |   |   |   |   |   y-ege > 0
|   |   |   |   |   |   |   |   |   |   |   x-bar <= 4
|   |   |   |   |   |   |   |   |   |   |   |   y2bar <= 6
|   |   |   |   |   |   |   |   |   |   |   |   |   high <= 4: Y (2.0)
|   |   |   |   |   |   |   |   |   |   |   |   |   high > 4: F (4.0)
|   |   |   |   |   |   |   |   |   |   |   |   y2bar > 6: Y (30.0/2.0)
|   |   |   |   |   |   |   |   |   |   |   x-bar > 4
|   |   |   |   |   |   |   |   |   |   |   |   x-box <= 5: T (21.0/2.0)
|   |   |   |   |   |   |   |   |   |   |   |   x-box > 5: Y (2.0)
|   |   |   |   |   |   |   |   |   x2bar > 2
|   |   |   |   |   |   |   |   |   |   xybar <= 11: F (9.0)
|   |   |   |   |   |   |   |   |   |   xybar > 11: Y (6.0)
|   |   |   |   |   |   |   xegvy > 10
|   |   |   |   |   |   |   |   xegvy <= 11
|   |   |   |   |   |   |   |   |   y-bar <= 10: Y (234.0)
|   |   |   |   |   |   |   |   |   y-bar > 10
|   |   |   |   |   |   |   |   |   |   y2bar <= 7
|   |   |   |   |   |   |   |   |   |   |   y-ege <= 1
|   |   |   |   |   |   |   |   |   |   |   |   yegvx <= 7
|   |   |   |   |   |   |   |   |   |   |   |   |   x-bar <= 6: V (2.0/1.0)
|   |   |   |   |   |   |   |   |   |   |   |   |   x-bar > 6: T (3.0)
|   |   |   |   |   |   |   |   |   |   |   |   yegvx > 7
|   |   |   |   |   |   |   |   |   |   |   |   |   y2bar <= 6: Y (31.0)
|   |   |   |   |   |   |   |   |   |   |   |   |   y2bar > 6: T (7.0/1.0)
|   |   |   |   |   |   |   |   |   |   |   y-ege > 1: Y (48.0)
|   |   |   |   |   |   |   |   |   |   y2bar > 7
|   |   |   |   |   |   |   |   |   |   |   y-ege <= 1: T (7.0)
|   |   |   |   |   |   |   |   |   |   |   y-ege > 1
|   |   |   |   |   |   |   |   |   |   |   |   x2ybr <= 10: T (3.0)
|   |   |   |   |   |   |   |   |   |   |   |   x2ybr > 10: Y (5.0)
|   |   |   |   |   |   |   |   xegvy > 11: T (4.0)
|   |   |   |   |   y-bar > 11
|   |   |   |   |   |   x-bar <= 2: F (6.0)
|   |   |   |   |   |   x-bar > 2
|   |   |   |   |   |   |   y2bar <= 3
|   |   |   |   |   |   |   |   onpix <= 0: T (4.0)
|   |   |   |   |   |   |   |   onpix > 0: Y (14.0)
|   |   |   |   |   |   |   y2bar > 3
|   |   |   |   |   |   |   |   x-bar <= 4
|   |   |   |   |   |   |   |   |   y-box <= 5: Y (5.0)
|   |   |   |   |   |   |   |   |   y-box > 5: T (10.0)
|   |   |   |   |   |   |   |   x-bar > 4: T (267.0/1.0)
|   |   |   |   x2bar > 3
|   |   |   |   |   xegvy <= 10
|   |   |   |   |   |   y-bar <= 9: C (40.0)
|   |   |   |   |   |   y-bar > 9
|   |   |   |   |   |   |   y-ege <= 3
|   |   |   |   |   |   |   |   y2bar <= 7
|   |   |   |   |   |   |   |   |   onpix <= 4
|   |   |   |   |   |   |   |   |   |   xy2br <= 3: F (3.0/1.0)
|   |   |   |   |   |   |   |   |   |   xy2br > 3
|   |   |   |   |   |   |   |   |   |   |   xegvy <= 8: F (173.0)
|   |   |   |   |   |   |   |   |   |   |   xegvy > 8
|   |   |   |   |   |   |   |   |   |   |   |   x2bar <= 4
|   |   |   |   |   |   |   |   |   |   |   |   |   onpix <= 2: F (38.0)
|   |   |   |   |   |   |   |   |   |   |   |   |   onpix > 2
|   |   |   |   |   |   |   |   |   |   |   |   |   |   x-bar <= 3: F (3.0)
|   |   |   |   |   |   |   |   |   |   |   |   |   |   x-bar > 3: P (2.0)
|   |   |   |   |   |   |   |   |   |   |   |   x2bar > 4: F (3.0/1.0)
|   |   |   |   |   |   |   |   |   onpix > 4: P (2.0)
|   |   |   |   |   |   |   |   y2bar > 7: C (2.0)
|   |   |   |   |   |   |   y-ege > 3: P (9.0/1.0)
|   |   |   |   |   xegvy > 10
|   |   |   |   |   |   x2ybr <= 10: T (9.0)
|   |   |   |   |   |   x2ybr > 10: Y (14.0)
|   y-ege > 4
|   |   x-bar <= 5
|   |   |   x-ege <= 0: E (198.0)
|   |   |   x-ege > 0
|   |   |   |   width <= 6
|   |   |   |   |   y2bar <= 6: F (2.0/1.0)
|   |   |   |   |   y2bar > 6: C (4.0)
|   |   |   |   width > 6: Z (2.0)
|   |   x-bar > 5
|   |   |   yegvx <= 9
|   |   |   |   y2bar <= 5
|   |   |   |   |   xy2br <= 5
|   |   |   |   |   |   high <= 6: I (6.0)
|   |   |   |   |   |   high > 6: J (3.0/1.0)
|   |   |   |   |   xy2br > 5
|   |   |   |   |   |   x-ege <= 0: S (3.0)
|   |   |   |   |   |   x-ege > 0
|   |   |   |   |   |   |   x-bar <= 9: B (42.0)
|   |   |   |   |   |   |   x-bar > 9: Z (2.0)
|   |   |   |   y2bar > 5
|   |   |   |   |   xybar <= 5: S (165.0/1.0)
|   |   |   |   |   xybar > 5
|   |   |   |   |   |   y2bar <= 8
|   |   |   |   |   |   |   x-box <= 4
|   |   |   |   |   |   |   |   y-ege <= 5
|   |   |   |   |   |   |   |   |   xegvy <= 9
|   |   |   |   |   |   |   |   |   |   x2bar <= 1: Z (4.0/1.0)
|   |   |   |   |   |   |   |   |   |   x2bar > 1
|   |   |   |   |   |   |   |   |   |   |   y2bar <= 7: S (34.0)
|   |   |   |   |   |   |   |   |   |   |   y2bar > 7
|   |   |   |   |   |   |   |   |   |   |   |   xy2br <= 7: S (3.0)
|   |   |   |   |   |   |   |   |   |   |   |   xy2br > 7: Z (2.0)
|   |   |   |   |   |   |   |   |   xegvy > 9: P (2.0)
|   |   |   |   |   |   |   |   y-ege > 5
|   |   |   |   |   |   |   |   |   x-ege <= 0
|   |   |   |   |   |   |   |   |   |   x2bar <= 4: Z (17.0)
|   |   |   |   |   |   |   |   |   |   x2bar > 4: S (2.0)
|   |   |   |   |   |   |   |   |   x-ege > 0: Z (41.0)
|   |   |   |   |   |   |   x-box > 4
|   |   |   |   |   |   |   |   onpix <= 5
|   |   |   |   |   |   |   |   |   xybar <= 11: E (19.0)
|   |   |   |   |   |   |   |   |   xybar > 11: C (2.0/1.0)
|   |   |   |   |   |   |   |   onpix > 5: Z (2.0)
|   |   |   |   |   |   y2bar > 8
|   |   |   |   |   |   |   xy2br <= 10: Z (424.0/1.0)
|   |   |   |   |   |   |   xy2br > 10: S (2.0)
|   |   |   yegvx > 9
|   |   |   |   x2bar <= 4
|   |   |   |   |   xy2br <= 6: I (3.0)
|   |   |   |   |   xy2br > 6
|   |   |   |   |   |   onpix <= 2: S (4.0)
|   |   |   |   |   |   onpix > 2: Z (8.0/1.0)
|   |   |   |   x2bar > 4
|   |   |   |   |   xy2br <= 8
|   |   |   |   |   |   x-box <= 2: B (4.0)
|   |   |   |   |   |   x-box > 2: G (3.0)
|   |   |   |   |   xy2br > 8: G (84.0)
x-ege > 1
|   y-ege <= 2
|   |   x-ege <= 3
|   |   |   xegvy <= 8
|   |   |   |   x2ybr <= 2
|   |   |   |   |   y2bar <= 4: A (324.0/2.0)
|   |   |   |   |   y2bar > 4
|   |   |   |   |   |   x-bar <= 7: L (3.0)
|   |   |   |   |   |   x-bar > 7: I (2.0/1.0)
|   |   |   |   x2ybr > 2
|   |   |   |   |   xy2br <= 8
|   |   |   |   |   |   xy2br <= 6: D (59.0/1.0)
|   |   |   |   |   |   xy2br > 6
|   |   |   |   |   |   |   y-ege <= 0
|   |   |   |   |   |   |   |   y2bar <= 3: H (182.0/1.0)
|   |   |   |   |   |   |   |   y2bar > 3: U (2.0)
|   |   |   |   |   |   |   y-ege > 0
|   |   |   |   |   |   |   |   y2bar <= 4
|   |   |   |   |   |   |   |   |   yegvx <= 8
|   |   |   |   |   |   |   |   |   |   xybar <= 6: Q (2.0/1.0)
|   |   |   |   |   |   |   |   |   |   xybar > 6: O (64.0)
|   |   |   |   |   |   |   |   |   yegvx > 8: B (2.0/1.0)
|   |   |   |   |   |   |   |   y2bar > 4
|   |   |   |   |   |   |   |   |   y2bar <= 6
|   |   |   |   |   |   |   |   |   |   xybar <= 10
|   |   |   |   |   |   |   |   |   |   |   y-bar <= 6: D (3.0/1.0)
|   |   |   |   |   |   |   |   |   |   |   y-bar > 6
|   |   |   |   |   |   |   |   |   |   |   |   xegvy <= 7: H (2.0/1.0)
|   |   |   |   |   |   |   |   |   |   |   |   xegvy > 7
|   |   |   |   |   |   |   |   |   |   |   |   |   x2bar <= 2
|   |   |   |   |   |   |   |   |   |   |   |   |   |   y2bar <= 5: H (2.0)
|   |   |   |   |   |   |   |   |   |   |   |   |   |   y2bar > 5: K (3.0)
|   |   |   |   |   |   |   |   |   |   |   |   |   x2bar > 2: H (20.0)
|   |   |   |   |   |   |   |   |   |   xybar > 10
|   |   |   |   |   |   |   |   |   |   |   xy2br <= 7: B (2.0/1.0)
|   |   |   |   |   |   |   |   |   |   |   xy2br > 7: J (5.0/1.0)
|   |   |   |   |   |   |   |   |   y2bar > 6: X (6.0/1.0)
|   |   |   |   |   xy2br > 8
|   |   |   |   |   |   xegvy <= 6: A (7.0)
|   |   |   |   |   |   xegvy > 6
|   |   |   |   |   |   |   xybar <= 12
|   |   |   |   |   |   |   |   x-bar <= 6
|   |   |   |   |   |   |   |   |   xy2br <= 9
|   |   |   |   |   |   |   |   |   |   x2bar <= 2: K (7.0/1.0)
|   |   |   |   |   |   |   |   |   |   x2bar > 2: H (2.0/1.0)
|   |   |   |   |   |   |   |   |   xy2br > 9: K (88.0)
|   |   |   |   |   |   |   |   x-bar > 6
|   |   |   |   |   |   |   |   |   x-ege <= 2: Q (3.0)
|   |   |   |   |   |   |   |   |   x-ege > 2: O (4.0/1.0)
|   |   |   |   |   |   |   xybar > 12: J (3.0)
|   |   |   xegvy > 8
|   |   |   |   x2bar <= 4
|   |   |   |   |   y2bar <= 4
|   |   |   |   |   |   x2ybr <= 8
|   |   |   |   |   |   |   yegvx <= 7: F (4.0/1.0)
|   |   |   |   |   |   |   yegvx > 7
|   |   |   |   |   |   |   |   high <= 2: W (2.0)
|   |   |   |   |   |   |   |   high > 2: S (3.0)
|   |   |   |   |   |   x2ybr > 8
|   |   |   |   |   |   |   xegvy <= 10: V (375.0/1.0)
|   |   |   |   |   |   |   xegvy > 10
|   |   |   |   |   |   |   |   x2ybr <= 11: V (111.0/1.0)
|   |   |   |   |   |   |   |   x2ybr > 11
|   |   |   |   |   |   |   |   |   width <= 3: V (9.0)
|   |   |   |   |   |   |   |   |   width > 3: Y (41.0/2.0)
|   |   |   |   |   y2bar > 4
|   |   |   |   |   |   xegvy <= 10
|   |   |   |   |   |   |   xy2br <= 6: F (53.0/1.0)
|   |   |   |   |   |   |   xy2br > 6
|   |   |   |   |   |   |   |   x2bar <= 3
|   |   |   |   |   |   |   |   |   x2bar <= 2: Y (3.0/1.0)
|   |   |   |   |   |   |   |   |   x2bar > 2
|   |   |   |   |   |   |   |   |   |   x-box <= 3: H (2.0)
|   |   |   |   |   |   |   |   |   |   x-box > 3: V (3.0)
|   |   |   |   |   |   |   |   x2bar > 3: U (14.0)
|   |   |   |   |   |   xegvy > 10
|   |   |   |   |   |   |   y-bar <= 10: Y (31.0/1.0)
|   |   |   |   |   |   |   y-bar > 10
|   |   |   |   |   |   |   |   x-bar <= 3: Y (4.0)
|   |   |   |   |   |   |   |   x-bar > 3: T (143.0/1.0)
|   |   |   |   x2bar > 4
|   |   |   |   |   xegvy <= 10
|   |   |   |   |   |   xy2br <= 6
|   |   |   |   |   |   |   yegvx <= 6
|   |   |   |   |   |   |   |   y-bar <= 9: C (2.0/1.0)
|   |   |   |   |   |   |   |   y-bar > 9: F (17.0)
|   |   |   |   |   |   |   yegvx > 6: H (2.0/1.0)
|   |   |   |   |   |   xy2br > 6
|   |   |   |   |   |   |   y-bar <= 10
|   |   |   |   |   |   |   |   y2bar <= 3
|   |   |   |   |   |   |   |   |   x-ege <= 2
|   |   |   |   |   |   |   |   |   |   y-box <= 1: U (2.0)
|   |   |   |   |   |   |   |   |   |   y-box > 1: Q (3.0)
|   |   |   |   |   |   |   |   |   x-ege > 2
|   |   |   |   |   |   |   |   |   |   y-bar <= 7: H (9.0)
|   |   |   |   |   |   |   |   |   |   y-bar > 7: V (17.0)
|   |   |   |   |   |   |   |   y2bar > 3
|   |   |   |   |   |   |   |   |   xy2br <= 11
|   |   |   |   |   |   |   |   |   |   x-ege <= 2
|   |   |   |   |   |   |   |   |   |   |   y-ege <= 1: U (4.0)
|   |   |   |   |   |   |   |   |   |   |   y-ege > 1: C (6.0/1.0)
|   |   |   |   |   |   |   |   |   |   x-ege > 2: U (517.0)
|   |   |   |   |   |   |   |   |   xy2br > 11: C (4.0)
|   |   |   |   |   |   |   y-bar > 10: V (24.0)
|   |   |   |   |   xegvy > 10
|   |   |   |   |   |   xegvy <= 11
|   |   |   |   |   |   |   x-bar <= 4: Y (6.0)
|   |   |   |   |   |   |   x-bar > 4: C (4.0/1.0)
|   |   |   |   |   |   xegvy > 11: T (14.0)
|   |   x-ege > 3
|   |   |   xegvy <= 6
|   |   |   |   x-ege <= 4
|   |   |   |   |   x2bar <= 3: A (5.0/1.0)
|   |   |   |   |   x2bar > 3: L (4.0/1.0)
|   |   |   |   x-ege > 4
|   |   |   |   |   xybar <= 4: U (4.0)
|   |   |   |   |   xybar > 4
|   |   |   |   |   |   y-box <= 14
|   |   |   |   |   |   |   x-ege <= 5
|   |   |   |   |   |   |   |   high <= 5: M (23.0)
|   |   |   |   |   |   |   |   high > 5
|   |   |   |   |   |   |   |   |   width <= 6: U (3.0)
|   |   |   |   |   |   |   |   |   width > 6: M (2.0)
|   |   |   |   |   |   |   x-ege > 5: M (509.0)
|   |   |   |   |   |   y-box > 14
|   |   |   |   |   |   |   high <= 8: N (2.0)
|   |   |   |   |   |   |   high > 8: M (2.0)
|   |   |   xegvy > 6
|   |   |   |   x2ybr <= 7
|   |   |   |   |   yegvx <= 10
|   |   |   |   |   |   x-ege <= 7
|   |   |   |   |   |   |   y-bar <= 6
|   |   |   |   |   |   |   |   xybar <= 9
|   |   |   |   |   |   |   |   |   y2bar <= 3: M (4.0/1.0)
|   |   |   |   |   |   |   |   |   y2bar > 3: U (18.0)
|   |   |   |   |   |   |   |   xybar > 9: N (17.0/1.0)
|   |   |   |   |   |   |   y-bar > 6
|   |   |   |   |   |   |   |   xegvy <= 10
|   |   |   |   |   |   |   |   |   onpix <= 5
|   |   |   |   |   |   |   |   |   |   xegvy <= 7
|   |   |   |   |   |   |   |   |   |   |   x2bar <= 2: J (2.0/1.0)
|   |   |   |   |   |   |   |   |   |   |   x2bar > 2: N (7.0/1.0)
|   |   |   |   |   |   |   |   |   |   xegvy > 7
|   |   |   |   |   |   |   |   |   |   |   x-ege <= 4
|   |   |   |   |   |   |   |   |   |   |   |   onpix <= 2: N (72.0/1.0)
|   |   |   |   |   |   |   |   |   |   |   |   onpix > 2: U (10.0/1.0)
|   |   |   |   |   |   |   |   |   |   |   x-ege > 4: N (433.0/3.0)
|   |   |   |   |   |   |   |   |   onpix > 5
|   |   |   |   |   |   |   |   |   |   x-box <= 3: W (3.0)
|   |   |   |   |   |   |   |   |   |   x-box > 3
|   |   |   |   |   |   |   |   |   |   |   x2ybr <= 6
|   |   |   |   |   |   |   |   |   |   |   |   y-box <= 9: U (3.0/1.0)
|   |   |   |   |   |   |   |   |   |   |   |   y-box > 9: N (15.0)
|   |   |   |   |   |   |   |   |   |   |   x2ybr > 6: U (8.0)
|   |   |   |   |   |   |   |   xegvy > 10
|   |   |   |   |   |   |   |   |   y-box <= 8: W (12.0)
|   |   |   |   |   |   |   |   |   y-box > 8
|   |   |   |   |   |   |   |   |   |   x2ybr <= 6: N (16.0)
|   |   |   |   |   |   |   |   |   |   x2ybr > 6: V (5.0/1.0)
|   |   |   |   |   |   x-ege > 7
|   |   |   |   |   |   |   y2bar <= 2: W (6.0/1.0)
|   |   |   |   |   |   |   y2bar > 2: M (44.0/1.0)
|   |   |   |   |   yegvx > 10
|   |   |   |   |   |   xegvy <= 7: D (2.0)
|   |   |   |   |   |   xegvy > 7: K (34.0/1.0)
|   |   |   |   x2ybr > 7
|   |   |   |   |   xegvy <= 8
|   |   |   |   |   |   xybar <= 8
|   |   |   |   |   |   |   y2bar <= 4: W (3.0/1.0)
|   |   |   |   |   |   |   y2bar > 4: U (11.0)
|   |   |   |   |   |   xybar > 8
|   |   |   |   |   |   |   y-bar <= 7
|   |   |   |   |   |   |   |   xybar <= 11: M (7.0)
|   |   |   |   |   |   |   |   xybar > 11: N (2.0)
|   |   |   |   |   |   |   y-bar > 7: N (63.0)
|   |   |   |   |   xegvy > 8
|   |   |   |   |   |   xybar <= 11
|   |   |   |   |   |   |   y2bar <= 4
|   |   |   |   |   |   |   |   x-ege <= 4
|   |   |   |   |   |   |   |   |   y2bar <= 1
|   |   |   |   |   |   |   |   |   |   x-box <= 3: P (2.0/1.0)
|   |   |   |   |   |   |   |   |   |   x-box > 3: V (2.0)
|   |   |   |   |   |   |   |   |   y2bar > 1: V (27.0)
|   |   |   |   |   |   |   |   x-ege > 4
|   |   |   |   |   |   |   |   |   xy2br <= 5: V (4.0)
|   |   |   |   |   |   |   |   |   xy2br > 5
|   |   |   |   |   |   |   |   |   |   x2bar <= 1
|   |   |   |   |   |   |   |   |   |   |   x-ege <= 6
|   |   |   |   |   |   |   |   |   |   |   |   x2ybr <= 9: F (2.0/1.0)
|   |   |   |   |   |   |   |   |   |   |   |   x2ybr > 9: V (5.0)
|   |   |   |   |   |   |   |   |   |   |   x-ege > 6: W (9.0)
|   |   |   |   |   |   |   |   |   |   x2bar > 1
|   |   |   |   |   |   |   |   |   |   |   y2bar <= 3
|   |   |   |   |   |   |   |   |   |   |   |   y-bar <= 11
|   |   |   |   |   |   |   |   |   |   |   |   |   x2ybr <= 11: W (530.0)
|   |   |   |   |   |   |   |   |   |   |   |   |   x2ybr > 11
|   |   |   |   |   |   |   |   |   |   |   |   |   |   x2ybr <= 12: W (8.0)
|   |   |   |   |   |   |   |   |   |   |   |   |   |   x2ybr > 12: V (2.0)
|   |   |   |   |   |   |   |   |   |   |   |   y-bar > 11
|   |   |   |   |   |   |   |   |   |   |   |   |   y2bar <= 2: W (13.0)
|   |   |   |   |   |   |   |   |   |   |   |   |   y2bar > 2: V (3.0/1.0)
|   |   |   |   |   |   |   |   |   |   |   y2bar > 3
|   |   |   |   |   |   |   |   |   |   |   |   y-bar <= 10
|   |   |   |   |   |   |   |   |   |   |   |   |   x-ege <= 6: N (3.0/1.0)
|   |   |   |   |   |   |   |   |   |   |   |   |   x-ege > 6: W (12.0)
|   |   |   |   |   |   |   |   |   |   |   |   y-bar > 10: V (3.0)
|   |   |   |   |   |   |   y2bar > 4
|   |   |   |   |   |   |   |   xybar <= 6: U (16.0)
|   |   |   |   |   |   |   |   xybar > 6
|   |   |   |   |   |   |   |   |   x2bar <= 3: T (2.0)
|   |   |   |   |   |   |   |   |   x2bar > 3: V (4.0/1.0)
|   |   |   |   |   |   xybar > 11
|   |   |   |   |   |   |   yegvx <= 7: W (2.0)
|   |   |   |   |   |   |   yegvx > 7: N (13.0)
|   y-ege > 2
|   |   xy2br <= 7
|   |   |   x2ybr <= 7
|   |   |   |   xybar <= 11
|   |   |   |   |   y-bar <= 8
|   |   |   |   |   |   xy2br <= 5
|   |   |   |   |   |   |   x2bar <= 4
|   |   |   |   |   |   |   |   y-ege <= 3: D (23.0/1.0)
|   |   |   |   |   |   |   |   y-ege > 3
|   |   |   |   |   |   |   |   |   y2bar <= 3
|   |   |   |   |   |   |   |   |   |   xegvy <= 7: G (7.0)
|   |   |   |   |   |   |   |   |   |   xegvy > 7
|   |   |   |   |   |   |   |   |   |   |   y2bar <= 2: S (2.0)
|   |   |   |   |   |   |   |   |   |   |   y2bar > 2: J (8.0/1.0)
|   |   |   |   |   |   |   |   |   y2bar > 3
|   |   |   |   |   |   |   |   |   |   y2bar <= 6
|   |   |   |   |   |   |   |   |   |   |   x2bar <= 3
|   |   |   |   |   |   |   |   |   |   |   |   x2ybr <= 3
|   |   |   |   |   |   |   |   |   |   |   |   |   y-bar <= 5: A (4.0)
|   |   |   |   |   |   |   |   |   |   |   |   |   y-bar > 5: J (2.0)
|   |   |   |   |   |   |   |   |   |   |   |   x2ybr > 3
|   |   |   |   |   |   |   |   |   |   |   |   |   xegvy <= 9
|   |   |   |   |   |   |   |   |   |   |   |   |   |   xybar <= 9
|   |   |   |   |   |   |   |   |   |   |   |   |   |   |   y-ege <= 7
|   |   |   |   |   |   |   |   |   |   |   |   |   |   |   |   xegvy <= 7
|   |   |   |   |   |   |   |   |   |   |   |   |   |   |   |   |   x-ege <= 5: J (3.0)
|   |   |   |   |   |   |   |   |   |   |   |   |   |   |   |   |   x-ege > 5: I (2.0)
|   |   |   |   |   |   |   |   |   |   |   |   |   |   |   |   xegvy > 7: I (31.0/2.0)
|   |   |   |   |   |   |   |   |   |   |   |   |   |   |   y-ege > 7: I (2.0/1.0)
|   |   |   |   |   |   |   |   |   |   |   |   |   |   xybar > 9
|   |   |   |   |   |   |   |   |   |   |   |   |   |   |   y2bar <= 5
|   |   |   |   |   |   |   |   |   |   |   |   |   |   |   |   high <= 7: F (5.0/1.0)
|   |   |   |   |   |   |   |   |   |   |   |   |   |   |   |   high > 7: J (2.0)
|   |   |   |   |   |   |   |   |   |   |   |   |   |   |   y2bar > 5: B (2.0)
|   |   |   |   |   |   |   |   |   |   |   |   |   xegvy > 9
|   |   |   |   |   |   |   |   |   |   |   |   |   |   x2bar <= 2: F (6.0)
|   |   |   |   |   |   |   |   |   |   |   |   |   |   x2bar > 2: X (2.0/1.0)
|   |   |   |   |   |   |   |   |   |   |   x2bar > 3
|   |   |   |   |   |   |   |   |   |   |   |   x-bar <= 8
|   |   |   |   |   |   |   |   |   |   |   |   |   xegvy <= 8: B (5.0/1.0)
|   |   |   |   |   |   |   |   |   |   |   |   |   xegvy > 8: Y (12.0/1.0)
|   |   |   |   |   |   |   |   |   |   |   |   x-bar > 8
|   |   |   |   |   |   |   |   |   |   |   |   |   onpix <= 5
|   |   |   |   |   |   |   |   |   |   |   |   |   |   xybar <= 10: H (7.0)
|   |   |   |   |   |   |   |   |   |   |   |   |   |   xybar > 10: F (2.0/1.0)
|   |   |   |   |   |   |   |   |   |   |   |   |   onpix > 5
|   |   |   |   |   |   |   |   |   |   |   |   |   |   high <= 6: D (2.0)
|   |   |   |   |   |   |   |   |   |   |   |   |   |   high > 6: J (2.0/1.0)
|   |   |   |   |   |   |   |   |   |   y2bar > 6
|   |   |   |   |   |   |   |   |   |   |   y2bar <= 7
|   |   |   |   |   |   |   |   |   |   |   |   onpix <= 4: K (2.0)
|   |   |   |   |   |   |   |   |   |   |   |   onpix > 4: B (6.0/2.0)
|   |   |   |   |   |   |   |   |   |   |   y2bar > 7: X (4.0)
|   |   |   |   |   |   |   x2bar > 4
|   |   |   |   |   |   |   |   y-ege <= 5
|   |   |   |   |   |   |   |   |   y-bar <= 5
|   |   |   |   |   |   |   |   |   |   y-bar <= 4
|   |   |   |   |   |   |   |   |   |   |   x-ege <= 3: J (2.0)
|   |   |   |   |   |   |   |   |   |   |   x-ege > 3: G (4.0)
|   |   |   |   |   |   |   |   |   |   y-bar > 4: O (5.0/1.0)
|   |   |   |   |   |   |   |   |   y-bar > 5
|   |   |   |   |   |   |   |   |   |   x-ege <= 6
|   |   |   |   |   |   |   |   |   |   |   xegvy <= 9
|   |   |   |   |   |   |   |   |   |   |   |   y2bar <= 5
|   |   |   |   |   |   |   |   |   |   |   |   |   x2ybr <= 4: N (5.0)
|   |   |   |   |   |   |   |   |   |   |   |   |   x2ybr > 4
|   |   |   |   |   |   |   |   |   |   |   |   |   |   onpix <= 3: O (3.0/1.0)
|   |   |   |   |   |   |   |   |   |   |   |   |   |   onpix > 3
|   |   |   |   |   |   |   |   |   |   |   |   |   |   |   y2bar <= 4
|   |   |   |   |   |   |   |   |   |   |   |   |   |   |   |   x-bar <= 7: D (2.0)
|   |   |   |   |   |   |   |   |   |   |   |   |   |   |   |   x-bar > 7: O (3.0)
|   |   |   |   |   |   |   |   |   |   |   |   |   |   |   y2bar > 4
|   |   |   |   |   |   |   |   |   |   |   |   |   |   |   |   x2bar <= 8: D (19.0)
|   |   |   |   |   |   |   |   |   |   |   |   |   |   |   |   x2bar > 8: N (2.0/1.0)
|   |   |   |   |   |   |   |   |   |   |   |   y2bar > 5
|   |   |   |   |   |   |   |   |   |   |   |   |   yegvx <= 6
|   |   |   |   |   |   |   |   |   |   |   |   |   |   xy2br <= 4: D (6.0)
|   |   |   |   |   |   |   |   |   |   |   |   |   |   xy2br > 4: H (4.0)
|   |   |   |   |   |   |   |   |   |   |   |   |   yegvx > 6
|   |   |   |   |   |   |   |   |   |   |   |   |   |   xegvy <= 7
|   |   |   |   |   |   |   |   |   |   |   |   |   |   |   y2bar <= 6: N (2.0)
|   |   |   |   |   |   |   |   |   |   |   |   |   |   |   y2bar > 6: D (9.0)
|   |   |   |   |   |   |   |   |   |   |   |   |   |   xegvy > 7: D (246.0/2.0)
|   |   |   |   |   |   |   |   |   |   |   xegvy > 9
|   |   |   |   |   |   |   |   |   |   |   |   x-bar <= 7: P (2.0)
|   |   |   |   |   |   |   |   |   |   |   |   x-bar > 7: N (3.0/1.0)
|   |   |   |   |   |   |   |   |   |   x-ege > 6
|   |   |   |   |   |   |   |   |   |   |   y-bar <= 7: M (8.0)
|   |   |   |   |   |   |   |   |   |   |   y-bar > 7: N (8.0)
|   |   |   |   |   |   |   |   y-ege > 5
|   |   |   |   |   |   |   |   |   x-ege <= 3: B (36.0)
|   |   |   |   |   |   |   |   |   x-ege > 3
|   |   |   |   |   |   |   |   |   |   y-bar <= 5: G (2.0/1.0)
|   |   |   |   |   |   |   |   |   |   y-bar > 5
|   |   |   |   |   |   |   |   |   |   |   x-bar <= 8
|   |   |   |   |   |   |   |   |   |   |   |   xybar <= 7: B (3.0/1.0)
|   |   |   |   |   |   |   |   |   |   |   |   xybar > 7: D (6.0)
|   |   |   |   |   |   |   |   |   |   |   x-bar > 8: D (3.0/2.0)
|   |   |   |   |   |   xy2br > 5
|   |   |   |   |   |   |   x2bar <= 2
|   |   |   |   |   |   |   |   y-bar <= 5
|   |   |   |   |   |   |   |   |   y2bar <= 5
|   |   |   |   |   |   |   |   |   |   x-bar <= 10
|   |   |   |   |   |   |   |   |   |   |   yegvx <= 8
|   |   |   |   |   |   |   |   |   |   |   |   yegvx <= 7: A (38.0)
|   |   |   |   |   |   |   |   |   |   |   |   yegvx > 7
|   |   |   |   |   |   |   |   |   |   |   |   |   width <= 5: S (3.0/1.0)
|   |   |   |   |   |   |   |   |   |   |   |   |   width > 5: A (6.0)
|   |   |   |   |   |   |   |   |   |   |   yegvx > 8: S (5.0)
|   |   |   |   |   |   |   |   |   |   x-bar > 10: G (2.0/1.0)
|   |   |   |   |   |   |   |   |   y2bar > 5
|   |   |   |   |   |   |   |   |   |   y2bar <= 7
|   |   |   |   |   |   |   |   |   |   |   onpix <= 5: D (4.0/1.0)
|   |   |   |   |   |   |   |   |   |   |   onpix > 5: B (3.0/1.0)
|   |   |   |   |   |   |   |   |   |   y2bar > 7: X (5.0)
|   |   |   |   |   |   |   |   y-bar > 5
|   |   |   |   |   |   |   |   |   y2bar <= 7
|   |   |   |   |   |   |   |   |   |   high <= 3
|   |   |   |   |   |   |   |   |   |   |   x2ybr <= 3: R (2.0)
|   |   |   |   |   |   |   |   |   |   |   x2ybr > 3: B (24.0/1.0)
|   |   |   |   |   |   |   |   |   |   high > 3
|   |   |   |   |   |   |   |   |   |   |   yegvx <= 8
|   |   |   |   |   |   |   |   |   |   |   |   xybar <= 8
|   |   |   |   |   |   |   |   |   |   |   |   |   y-ege <= 4: A (2.0)
|   |   |   |   |   |   |   |   |   |   |   |   |   y-ege > 4
|   |   |   |   |   |   |   |   |   |   |   |   |   |   yegvx <= 6: J (3.0/1.0)
|   |   |   |   |   |   |   |   |   |   |   |   |   |   yegvx > 6: X (21.0)
|   |   |   |   |   |   |   |   |   |   |   |   xybar > 8
|   |   |   |   |   |   |   |   |   |   |   |   |   x2ybr <= 4
|   |   |   |   |   |   |   |   |   |   |   |   |   |   y-box <= 11: J (3.0/1.0)
|   |   |   |   |   |   |   |   |   |   |   |   |   |   y-box > 11: X (3.0)
|   |   |   |   |   |   |   |   |   |   |   |   |   x2ybr > 4
|   |   |   |   |   |   |   |   |   |   |   |   |   |   y-box <= 12
|   |   |   |   |   |   |   |   |   |   |   |   |   |   |   xy2br <= 6: F (21.0)
|   |   |   |   |   |   |   |   |   |   |   |   |   |   |   xy2br > 6
|   |   |   |   |   |   |   |   |   |   |   |   |   |   |   |   onpix <= 5: X (4.0)
|   |   |   |   |   |   |   |   |   |   |   |   |   |   |   |   onpix > 5: F (4.0)
|   |   |   |   |   |   |   |   |   |   |   |   |   |   y-box > 12: T (2.0/1.0)
|   |   |   |   |   |   |   |   |   |   |   yegvx > 8
|   |   |   |   |   |   |   |   |   |   |   |   y-ege <= 3
|   |   |   |   |   |   |   |   |   |   |   |   |   xybar <= 9: M (2.0)
|   |   |   |   |   |   |   |   |   |   |   |   |   xybar > 9
|   |   |   |   |   |   |   |   |   |   |   |   |   |   y-bar <= 6
|   |   |   |   |   |   |   |   |   |   |   |   |   |   |   x2ybr <= 2: R (2.0/1.0)
|   |   |   |   |   |   |   |   |   |   |   |   |   |   |   x2ybr > 2: D (4.0/1.0)
|   |   |   |   |   |   |   |   |   |   |   |   |   |   y-bar > 6
|   |   |   |   |   |   |   |   |   |   |   |   |   |   |   x-box <= 4: R (4.0/1.0)
|   |   |   |   |   |   |   |   |   |   |   |   |   |   |   x-box > 4: K (4.0)
|   |   |   |   |   |   |   |   |   |   |   |   y-ege > 3
|   |   |   |   |   |   |   |   |   |   |   |   |   xy2br <= 6
|   |   |   |   |   |   |   |   |   |   |   |   |   |   y2bar <= 4: J (3.0)
|   |   |   |   |   |   |   |   |   |   |   |   |   |   y2bar > 4
|   |   |   |   |   |   |   |   |   |   |   |   |   |   |   xegvy <= 8: F (2.0/1.0)
|   |   |   |   |   |   |   |   |   |   |   |   |   |   |   xegvy > 8: I (6.0)
|   |   |   |   |   |   |   |   |   |   |   |   |   xy2br > 6
|   |   |   |   |   |   |   |   |   |   |   |   |   |   y-bar <= 7
|   |   |   |   |   |   |   |   |   |   |   |   |   |   |   xybar <= 8: X (4.0)
|   |   |   |   |   |   |   |   |   |   |   |   |   |   |   xybar > 8
|   |   |   |   |   |   |   |   |   |   |   |   |   |   |   |   y2bar <= 6: B (8.0/1.0)
|   |   |   |   |   |   |   |   |   |   |   |   |   |   |   |   y2bar > 6
|   |   |   |   |   |   |   |   |   |   |   |   |   |   |   |   |   y-ege <= 4
|   |   |   |   |   |   |   |   |   |   |   |   |   |   |   |   |   |   high <= 7: X (2.0)
|   |   |   |   |   |   |   |   |   |   |   |   |   |   |   |   |   |   high > 7: D (2.0)
|   |   |   |   |   |   |   |   |   |   |   |   |   |   |   |   |   y-ege > 4: B (2.0)
|   |   |   |   |   |   |   |   |   |   |   |   |   |   y-bar > 7: J (2.0)
|   |   |   |   |   |   |   |   |   y2bar > 7
|   |   |   |   |   |   |   |   |   |   y-ege <= 4: X (71.0)
|   |   |   |   |   |   |   |   |   |   y-ege > 4: F (2.0/1.0)
|   |   |   |   |   |   |   x2bar > 2
|   |   |   |   |   |   |   |   x-ege <= 2
|   |   |   |   |   |   |   |   |   y-ege <= 4
|   |   |   |   |   |   |   |   |   |   xegvy <= 7
|   |   |   |   |   |   |   |   |   |   |   yegvx <= 7: J (6.0/1.0)
|   |   |   |   |   |   |   |   |   |   |   yegvx > 7
|   |   |   |   |   |   |   |   |   |   |   |   x-box <= 3: R (82.0/1.0)
|   |   |   |   |   |   |   |   |   |   |   |   x-box > 3: S (9.0/1.0)
|   |   |   |   |   |   |   |   |   |   xegvy > 7
|   |   |   |   |   |   |   |   |   |   |   y-ege <= 3
|   |   |   |   |   |   |   |   |   |   |   |   xy2br <= 6
|   |   |   |   |   |   |   |   |   |   |   |   |   xybar <= 5: D (2.0/1.0)
|   |   |   |   |   |   |   |   |   |   |   |   |   xybar > 5
|   |   |   |   |   |   |   |   |   |   |   |   |   |   y-box <= 8: D (87.0/1.0)
|   |   |   |   |   |   |   |   |   |   |   |   |   |   y-box > 8
|   |   |   |   |   |   |   |   |   |   |   |   |   |   |   x2bar <= 8: O (2.0)
|   |   |   |   |   |   |   |   |   |   |   |   |   |   |   x2bar > 8: D (4.0)
|   |   |   |   |   |   |   |   |   |   |   |   xy2br > 6: O (13.0/2.0)
|   |   |   |   |   |   |   |   |   |   |   y-ege > 3
|   |   |   |   |   |   |   |   |   |   |   |   y2bar <= 4: X (5.0/1.0)
|   |   |   |   |   |   |   |   |   |   |   |   y2bar > 4
|   |   |   |   |   |   |   |   |   |   |   |   |   yegvx <= 6: J (3.0)
|   |   |   |   |   |   |   |   |   |   |   |   |   yegvx > 6
|   |   |   |   |   |   |   |   |   |   |   |   |   |   x2bar <= 6: B (30.0)
|   |   |   |   |   |   |   |   |   |   |   |   |   |   x2bar > 6: Q (2.0)
|   |   |   |   |   |   |   |   |   y-ege > 4
|   |   |   |   |   |   |   |   |   |   yegvx <= 8
|   |   |   |   |   |   |   |   |   |   |   y-box <= 11
|   |   |   |   |   |   |   |   |   |   |   |   xybar <= 6
|   |   |   |   |   |   |   |   |   |   |   |   |   x2ybr <= 5
|   |   |   |   |   |   |   |   |   |   |   |   |   |   x-box <= 2: R (4.0)
|   |   |   |   |   |   |   |   |   |   |   |   |   |   x-box > 2: B (2.0/1.0)
|   |   |   |   |   |   |   |   |   |   |   |   |   x2ybr > 5
|   |   |   |   |   |   |   |   |   |   |   |   |   |   x2bar <= 4: X (11.0)
|   |   |   |   |   |   |   |   |   |   |   |   |   |   x2bar > 4: Z (7.0)
|   |   |   |   |   |   |   |   |   |   |   |   xybar > 6
|   |   |   |   |   |   |   |   |   |   |   |   |   x2ybr <= 3: Z (8.0/1.0)
|   |   |   |   |   |   |   |   |   |   |   |   |   x2ybr > 3
|   |   |   |   |   |   |   |   |   |   |   |   |   |   y-bar <= 6
|   |   |   |   |   |   |   |   |   |   |   |   |   |   |   yegvx <= 7
|   |   |   |   |   |   |   |   |   |   |   |   |   |   |   |   x-box <= 4: S (2.0)
|   |   |   |   |   |   |   |   |   |   |   |   |   |   |   |   x-box > 4: J (3.0)
|   |   |   |   |   |   |   |   |   |   |   |   |   |   |   yegvx > 7: Z (4.0)
|   |   |   |   |   |   |   |   |   |   |   |   |   |   y-bar > 6
|   |   |   |   |   |   |   |   |   |   |   |   |   |   |   y2bar <= 3
|   |   |   |   |   |   |   |   |   |   |   |   |   |   |   |   y-bar <= 7: S (5.0/1.0)
|   |   |   |   |   |   |   |   |   |   |   |   |   |   |   |   y-bar > 7: Z (2.0)
|   |   |   |   |   |   |   |   |   |   |   |   |   |   |   y2bar > 3
|   |   |   |   |   |   |   |   |   |   |   |   |   |   |   |   xy2br <= 6
|   |   |   |   |   |   |   |   |   |   |   |   |   |   |   |   |   x2ybr <= 5
|   |   |   |   |   |   |   |   |   |   |   |   |   |   |   |   |   |   yegvx <= 7: B (2.0)
|   |   |   |   |   |   |   |   |   |   |   |   |   |   |   |   |   |   yegvx > 7: S (21.0/2.0)
|   |   |   |   |   |   |   |   |   |   |   |   |   |   |   |   |   x2ybr > 5: B (6.0)
|   |   |   |   |   |   |   |   |   |   |   |   |   |   |   |   xy2br > 6
|   |   |   |   |   |   |   |   |   |   |   |   |   |   |   |   |   x-bar <= 6
|   |   |   |   |   |   |   |   |   |   |   |   |   |   |   |   |   |   x2bar <= 5: S (4.0)
|   |   |   |   |   |   |   |   |   |   |   |   |   |   |   |   |   |   x2bar > 5: B (2.0/1.0)
|   |   |   |   |   |   |   |   |   |   |   |   |   |   |   |   |   x-bar > 6: S (84.0/2.0)
|   |   |   |   |   |   |   |   |   |   |   y-box > 11
|   |   |   |   |   |   |   |   |   |   |   |   x2bar <= 5: T (5.0)
|   |   |   |   |   |   |   |   |   |   |   |   x2bar > 5: C (2.0)
|   |   |   |   |   |   |   |   |   |   yegvx > 8
|   |   |   |   |   |   |   |   |   |   |   y-bar <= 5
|   |   |   |   |   |   |   |   |   |   |   |   x2bar <= 4: Z (6.0)
|   |   |   |   |   |   |   |   |   |   |   |   x2bar > 4: B (4.0/1.0)
|   |   |   |   |   |   |   |   |   |   |   y-bar > 5
|   |   |   |   |   |   |   |   |   |   |   |   xegvy <= 7
|   |   |   |   |   |   |   |   |   |   |   |   |   y-ege <= 5
|   |   |   |   |   |   |   |   |   |   |   |   |   |   x-bar <= 7: R (2.0)
|   |   |   |   |   |   |   |   |   |   |   |   |   |   x-bar > 7: S (10.0)
|   |   |   |   |   |   |   |   |   |   |   |   |   y-ege > 5
|   |   |   |   |   |   |   |   |   |   |   |   |   |   yegvx <= 10: B (6.0)
|   |   |   |   |   |   |   |   |   |   |   |   |   |   yegvx > 10: G (6.0)
|   |   |   |   |   |   |   |   |   |   |   |   xegvy > 7
|   |   |   |   |   |   |   |   |   |   |   |   |   x2ybr <= 4
|   |   |   |   |   |   |   |   |   |   |   |   |   |   xegvy <= 8
|   |   |   |   |   |   |   |   |   |   |   |   |   |   |   x2bar <= 3: B (16.0/1.0)
|   |   |   |   |   |   |   |   |   |   |   |   |   |   |   x2bar > 3
|   |   |   |   |   |   |   |   |   |   |   |   |   |   |   |   y-ege <= 5: S (5.0)
|   |   |   |   |   |   |   |   |   |   |   |   |   |   |   |   y-ege > 5: B (3.0)
|   |   |   |   |   |   |   |   |   |   |   |   |   |   xegvy > 8: F (2.0/1.0)
|   |   |   |   |   |   |   |   |   |   |   |   |   x2ybr > 4
|   |   |   |   |   |   |   |   |   |   |   |   |   |   yegvx <= 10: B (257.0/3.0)
|   |   |   |   |   |   |   |   |   |   |   |   |   |   yegvx > 10
|   |   |   |   |   |   |   |   |   |   |   |   |   |   |   y-ege <= 6: G (3.0/1.0)
|   |   |   |   |   |   |   |   |   |   |   |   |   |   |   y-ege > 6: B (3.0)
|   |   |   |   |   |   |   |   x-ege > 2
|   |   |   |   |   |   |   |   |   yegvx <= 6
|   |   |   |   |   |   |   |   |   |   x-ege <= 5
|   |   |   |   |   |   |   |   |   |   |   x2bar <= 3
|   |   |   |   |   |   |   |   |   |   |   |   x-bar <= 7
|   |   |   |   |   |   |   |   |   |   |   |   |   xegvy <= 8
|   |   |   |   |   |   |   |   |   |   |   |   |   |   xegvy <= 6: A (2.0)
|   |   |   |   |   |   |   |   |   |   |   |   |   |   xegvy > 6: S (18.0/1.0)
|   |   |   |   |   |   |   |   |   |   |   |   |   xegvy > 8
|   |   |   |   |   |   |   |   |   |   |   |   |   |   xybar <= 7: X (4.0)
|   |   |   |   |   |   |   |   |   |   |   |   |   |   xybar > 7: N (2.0/1.0)
|   |   |   |   |   |   |   |   |   |   |   |   x-bar > 7
|   |   |   |   |   |   |   |   |   |   |   |   |   x2ybr <= 5
|   |   |   |   |   |   |   |   |   |   |   |   |   |   x-ege <= 4: J (11.0/1.0)
|   |   |   |   |   |   |   |   |   |   |   |   |   |   x-ege > 4: D (3.0)
|   |   |   |   |   |   |   |   |   |   |   |   |   x2ybr > 5: A (8.0/2.0)
|   |   |   |   |   |   |   |   |   |   |   x2bar > 3
|   |   |   |   |   |   |   |   |   |   |   |   y-ege <= 4
|   |   |   |   |   |   |   |   |   |   |   |   |   xybar <= 7
|   |   |   |   |   |   |   |   |   |   |   |   |   |   x2bar <= 5: U (7.0/1.0)
|   |   |   |   |   |   |   |   |   |   |   |   |   |   x2bar > 5: H (5.0)
|   |   |   |   |   |   |   |   |   |   |   |   |   xybar > 7: J (9.0/1.0)
|   |   |   |   |   |   |   |   |   |   |   |   y-ege > 4
|   |   |   |   |   |   |   |   |   |   |   |   |   y-bar <= 4: Q (8.0)
|   |   |   |   |   |   |   |   |   |   |   |   |   y-bar > 4
|   |   |   |   |   |   |   |   |   |   |   |   |   |   y2bar <= 4
|   |   |   |   |   |   |   |   |   |   |   |   |   |   |   x-ege <= 4
|   |   |   |   |   |   |   |   |   |   |   |   |   |   |   |   x2bar <= 5
|   |   |   |   |   |   |   |   |   |   |   |   |   |   |   |   |   y-box <= 5: H (2.0)
|   |   |   |   |   |   |   |   |   |   |   |   |   |   |   |   |   y-box > 5
|   |   |   |   |   |   |   |   |   |   |   |   |   |   |   |   |   |   y-ege <= 8
|   |   |   |   |   |   |   |   |   |   |   |   |   |   |   |   |   |   |   xybar <= 7
|   |   |   |   |   |   |   |   |   |   |   |   |   |   |   |   |   |   |   |   y2bar <= 3: Z (2.0)
|   |   |   |   |   |   |   |   |   |   |   |   |   |   |   |   |   |   |   |   y2bar > 3: D (8.0)
|   |   |   |   |   |   |   |   |   |   |   |   |   |   |   |   |   |   |   xybar > 7: J (4.0)
|   |   |   |   |   |   |   |   |   |   |   |   |   |   |   |   |   |   y-ege > 8: Z (13.0)
|   |   |   |   |   |   |   |   |   |   |   |   |   |   |   |   x2bar > 5: B (6.0/1.0)
|   |   |   |   |   |   |   |   |   |   |   |   |   |   |   x-ege > 4: N (4.0/1.0)
|   |   |   |   |   |   |   |   |   |   |   |   |   |   y2bar > 4
|   |   |   |   |   |   |   |   |   |   |   |   |   |   |   y-bar <= 6
|   |   |   |   |   |   |   |   |   |   |   |   |   |   |   |   y2bar <= 5: O (2.0/1.0)
|   |   |   |   |   |   |   |   |   |   |   |   |   |   |   |   y2bar > 5: D (3.0/1.0)
|   |   |   |   |   |   |   |   |   |   |   |   |   |   |   y-bar > 6
|   |   |   |   |   |   |   |   |   |   |   |   |   |   |   |   x2bar <= 5: D (50.0/1.0)
|   |   |   |   |   |   |   |   |   |   |   |   |   |   |   |   x2bar > 5
|   |   |   |   |   |   |   |   |   |   |   |   |   |   |   |   |   y2bar <= 6: G (3.0/1.0)
|   |   |   |   |   |   |   |   |   |   |   |   |   |   |   |   |   y2bar > 6: D (5.0)
|   |   |   |   |   |   |   |   |   |   x-ege > 5
|   |   |   |   |   |   |   |   |   |   |   x-ege <= 8
|   |   |   |   |   |   |   |   |   |   |   |   y2bar <= 3
|   |   |   |   |   |   |   |   |   |   |   |   |   x2bar <= 4
|   |   |   |   |   |   |   |   |   |   |   |   |   |   high <= 6: H (5.0/2.0)
|   |   |   |   |   |   |   |   |   |   |   |   |   |   high > 6: P (7.0/1.0)
|   |   |   |   |   |   |   |   |   |   |   |   |   x2bar > 4
|   |   |   |   |   |   |   |   |   |   |   |   |   |   x-box <= 5: Y (3.0)
|   |   |   |   |   |   |   |   |   |   |   |   |   |   x-box > 5: W (2.0)
|   |   |   |   |   |   |   |   |   |   |   |   y2bar > 3
|   |   |   |   |   |   |   |   |   |   |   |   |   y2bar <= 6
|   |   |   |   |   |   |   |   |   |   |   |   |   |   x2ybr <= 5
|   |   |   |   |   |   |   |   |   |   |   |   |   |   |   x2bar <= 4
|   |   |   |   |   |   |   |   |   |   |   |   |   |   |   |   xy2br <= 6: N (3.0/1.0)
|   |   |   |   |   |   |   |   |   |   |   |   |   |   |   |   xy2br > 6: R (10.0)
|   |   |   |   |   |   |   |   |   |   |   |   |   |   |   x2bar > 4: N (7.0)
|   |   |   |   |   |   |   |   |   |   |   |   |   |   x2ybr > 5
|   |   |   |   |   |   |   |   |   |   |   |   |   |   |   y-ege <= 6
|   |   |   |   |   |   |   |   |   |   |   |   |   |   |   |   xegvy <= 8
|   |   |   |   |   |   |   |   |   |   |   |   |   |   |   |   |   high <= 4: M (3.0)
|   |   |   |   |   |   |   |   |   |   |   |   |   |   |   |   |   high > 4: U (6.0/1.0)
|   |   |   |   |   |   |   |   |   |   |   |   |   |   |   |   xegvy > 8: N (9.0/1.0)
|   |   |   |   |   |   |   |   |   |   |   |   |   |   |   y-ege > 6
|   |   |   |   |   |   |   |   |   |   |   |   |   |   |   |   xy2br <= 6
|   |   |   |   |   |   |   |   |   |   |   |   |   |   |   |   |   y-bar <= 7: N (3.0)
|   |   |   |   |   |   |   |   |   |   |   |   |   |   |   |   |   y-bar > 7: D (4.0)
|   |   |   |   |   |   |   |   |   |   |   |   |   |   |   |   xy2br > 6
|   |   |   |   |   |   |   |   |   |   |   |   |   |   |   |   |   onpix <= 9
|   |   |   |   |   |   |   |   |   |   |   |   |   |   |   |   |   |   yegvx <= 5: N (7.0/1.0)
|   |   |   |   |   |   |   |   |   |   |   |   |   |   |   |   |   |   yegvx > 5: B (6.0)
|   |   |   |   |   |   |   |   |   |   |   |   |   |   |   |   |   onpix > 9: H (2.0)
|   |   |   |   |   |   |   |   |   |   |   |   |   y2bar > 6: D (10.0)
|   |   |   |   |   |   |   |   |   |   |   x-ege > 8
|   |   |   |   |   |   |   |   |   |   |   |   y2bar <= 2: W (2.0)
|   |   |   |   |   |   |   |   |   |   |   |   y2bar > 2
|   |   |   |   |   |   |   |   |   |   |   |   |   y-ege <= 7
|   |   |   |   |   |   |   |   |   |   |   |   |   |   xybar <= 6
|   |   |   |   |   |   |   |   |   |   |   |   |   |   |   y-ege <= 4: M (13.0)
|   |   |   |   |   |   |   |   |   |   |   |   |   |   |   y-ege > 4: U (4.0)
|   |   |   |   |   |   |   |   |   |   |   |   |   |   xybar > 6: M (28.0/1.0)
|   |   |   |   |   |   |   |   |   |   |   |   |   y-ege > 7
|   |   |   |   |   |   |   |   |   |   |   |   |   |   x-box <= 7: N (2.0)
|   |   |   |   |   |   |   |   |   |   |   |   |   |   x-box > 7: M (2.0)
|   |   |   |   |   |   |   |   |   yegvx > 6
|   |   |   |   |   |   |   |   |   |   x2bar <= 6
|   |   |   |   |   |   |   |   |   |   |   y2bar <= 4
|   |   |   |   |   |   |   |   |   |   |   |   xybar <= 7
|   |   |   |   |   |   |   |   |   |   |   |   |   y-ege <= 4
|   |   |   |   |   |   |   |   |   |   |   |   |   |   x-ege <= 4
|   |   |   |   |   |   |   |   |   |   |   |   |   |   |   y2bar <= 3: A (4.0)
|   |   |   |   |   |   |   |   |   |   |   |   |   |   |   y2bar > 3
|   |   |   |   |   |   |   |   |   |   |   |   |   |   |   |   xybar <= 6: Q (2.0)
|   |   |   |   |   |   |   |   |   |   |   |   |   |   |   |   xybar > 6: X (7.0/1.0)
|   |   |   |   |   |   |   |   |   |   |   |   |   |   x-ege > 4: U (3.0/1.0)
|   |   |   |   |   |   |   |   |   |   |   |   |   y-ege > 4
|   |   |   |   |   |   |   |   |   |   |   |   |   |   y2bar <= 3
|   |   |   |   |   |   |   |   |   |   |   |   |   |   |   x-ege <= 8
|   |   |   |   |   |   |   |   |   |   |   |   |   |   |   |   x2ybr <= 6
|   |   |   |   |   |   |   |   |   |   |   |   |   |   |   |   |   y2bar <= 1: P (6.0)
|   |   |   |   |   |   |   |   |   |   |   |   |   |   |   |   |   y2bar > 1
|   |   |   |   |   |   |   |   |   |   |   |   |   |   |   |   |   |   yegvx <= 8
|   |   |   |   |   |   |   |   |   |   |   |   |   |   |   |   |   |   |   y-ege <= 6
|   |   |   |   |   |   |   |   |   |   |   |   |   |   |   |   |   |   |   |   x2bar <= 4: H (2.0)
|   |   |   |   |   |   |   |   |   |   |   |   |   |   |   |   |   |   |   |   x2bar > 4: N (2.0/1.0)
|   |   |   |   |   |   |   |   |   |   |   |   |   |   |   |   |   |   |   y-ege > 6: H (16.0)
|   |   |   |   |   |   |   |   |   |   |   |   |   |   |   |   |   |   yegvx > 8
|   |   |   |   |   |   |   |   |   |   |   |   |   |   |   |   |   |   |   xegvy <= 8: H (4.0)
|   |   |   |   |   |   |   |   |   |   |   |   |   |   |   |   |   |   |   xegvy > 8: P (2.0)
|   |   |   |   |   |   |   |   |   |   |   |   |   |   |   |   x2ybr > 6
|   |   |   |   |   |   |   |   |   |   |   |   |   |   |   |   |   y-ege <= 6: P (4.0)
|   |   |   |   |   |   |   |   |   |   |   |   |   |   |   |   |   y-ege > 6: B (14.0/1.0)
|   |   |   |   |   |   |   |   |   |   |   |   |   |   |   x-ege > 8
|   |   |   |   |   |   |   |   |   |   |   |   |   |   |   |   xybar <= 6: G (2.0/1.0)
|   |   |   |   |   |   |   |   |   |   |   |   |   |   |   |   xybar > 6
|   |   |   |   |   |   |   |   |   |   |   |   |   |   |   |   |   high <= 8: O (3.0)
|   |   |   |   |   |   |   |   |   |   |   |   |   |   |   |   |   high > 8: P (2.0)
|   |   |   |   |   |   |   |   |   |   |   |   |   |   y2bar > 3
|   |   |   |   |   |   |   |   |   |   |   |   |   |   |   yegvx <= 10
|   |   |   |   |   |   |   |   |   |   |   |   |   |   |   |   y-bar <= 4: S (6.0/1.0)
|   |   |   |   |   |   |   |   |   |   |   |   |   |   |   |   y-bar > 4
|   |   |   |   |   |   |   |   |   |   |   |   |   |   |   |   |   x-bar <= 6: O (4.0)
|   |   |   |   |   |   |   |   |   |   |   |   |   |   |   |   |   x-bar > 6
|   |   |   |   |   |   |   |   |   |   |   |   |   |   |   |   |   |   x2ybr <= 6
|   |   |   |   |   |   |   |   |   |   |   |   |   |   |   |   |   |   |   y-ege <= 8: B (16.0/2.0)
|   |   |   |   |   |   |   |   |   |   |   |   |   |   |   |   |   |   |   y-ege > 8: F (2.0/1.0)
|   |   |   |   |   |   |   |   |   |   |   |   |   |   |   |   |   |   x2ybr > 6
|   |   |   |   |   |   |   |   |   |   |   |   |   |   |   |   |   |   |   y-ege <= 7: U (4.0)
|   |   |   |   |   |   |   |   |   |   |   |   |   |   |   |   |   |   |   y-ege > 7: B (4.0/1.0)
|   |   |   |   |   |   |   |   |   |   |   |   |   |   |   yegvx > 10
|   |   |   |   |   |   |   |   |   |   |   |   |   |   |   |   x2ybr <= 6
|   |   |   |   |   |   |   |   |   |   |   |   |   |   |   |   |   xegvy <= 8: K (7.0)
|   |   |   |   |   |   |   |   |   |   |   |   |   |   |   |   |   xegvy > 8: V (2.0)
|   |   |   |   |   |   |   |   |   |   |   |   |   |   |   |   x2ybr > 6: L (2.0/1.0)
|   |   |   |   |   |   |   |   |   |   |   |   xybar > 7
|   |   |   |   |   |   |   |   |   |   |   |   |   x-ege <= 4
|   |   |   |   |   |   |   |   |   |   |   |   |   |   y-box <= 8
|   |   |   |   |   |   |   |   |   |   |   |   |   |   |   y-ege <= 7
|   |   |   |   |   |   |   |   |   |   |   |   |   |   |   |   x-bar <= 7: O (3.0)
|   |   |   |   |   |   |   |   |   |   |   |   |   |   |   |   x-bar > 7: R (7.0/1.0)
|   |   |   |   |   |   |   |   |   |   |   |   |   |   |   y-ege > 7
|   |   |   |   |   |   |   |   |   |   |   |   |   |   |   |   x-box <= 4: S (2.0)
|   |   |   |   |   |   |   |   |   |   |   |   |   |   |   |   x-box > 4: Z (2.0)
|   |   |   |   |   |   |   |   |   |   |   |   |   |   y-box > 8
|   |   |   |   |   |   |   |   |   |   |   |   |   |   |   x2bar <= 5
|   |   |   |   |   |   |   |   |   |   |   |   |   |   |   |   onpix <= 5
|   |   |   |   |   |   |   |   |   |   |   |   |   |   |   |   |   x-ege <= 3
|   |   |   |   |   |   |   |   |   |   |   |   |   |   |   |   |   |   y-ege <= 7: F (3.0/2.0)
|   |   |   |   |   |   |   |   |   |   |   |   |   |   |   |   |   |   y-ege > 7: G (7.0)
|   |   |   |   |   |   |   |   |   |   |   |   |   |   |   |   |   x-ege > 3: G (15.0)
|   |   |   |   |   |   |   |   |   |   |   |   |   |   |   |   onpix > 5: J (3.0/2.0)
|   |   |   |   |   |   |   |   |   |   |   |   |   |   |   x2bar > 5: R (3.0/1.0)
|   |   |   |   |   |   |   |   |   |   |   |   |   x-ege > 4
|   |   |   |   |   |   |   |   |   |   |   |   |   |   y-ege <= 7
|   |   |   |   |   |   |   |   |   |   |   |   |   |   |   x2bar <= 4
|   |   |   |   |   |   |   |   |   |   |   |   |   |   |   |   x-box <= 5: J (3.0/2.0)
|   |   |   |   |   |   |   |   |   |   |   |   |   |   |   |   x-box > 5: H (5.0)
|   |   |   |   |   |   |   |   |   |   |   |   |   |   |   x2bar > 4
|   |   |   |   |   |   |   |   |   |   |   |   |   |   |   |   width <= 5: O (2.0)
|   |   |   |   |   |   |   |   |   |   |   |   |   |   |   |   width > 5: P (9.0/2.0)
|   |   |   |   |   |   |   |   |   |   |   |   |   |   y-ege > 7
|   |   |   |   |   |   |   |   |   |   |   |   |   |   |   y-bar <= 7: B (2.0/1.0)
|   |   |   |   |   |   |   |   |   |   |   |   |   |   |   y-bar > 7: S (4.0/1.0)
|   |   |   |   |   |   |   |   |   |   |   y2bar > 4
|   |   |   |   |   |   |   |   |   |   |   |   y-ege <= 5
|   |   |   |   |   |   |   |   |   |   |   |   |   y-box <= 11
|   |   |   |   |   |   |   |   |   |   |   |   |   |   xegvy <= 7
|   |   |   |   |   |   |   |   |   |   |   |   |   |   |   yegvx <= 7
|   |   |   |   |   |   |   |   |   |   |   |   |   |   |   |   y-ege <= 3
|   |   |   |   |   |   |   |   |   |   |   |   |   |   |   |   |   x-box <= 5: M (2.0/1.0)
|   |   |   |   |   |   |   |   |   |   |   |   |   |   |   |   |   x-box > 5: D (2.0/1.0)
|   |   |   |   |   |   |   |   |   |   |   |   |   |   |   |   y-ege > 3
|   |   |   |   |   |   |   |   |   |   |   |   |   |   |   |   |   x-ege <= 4
|   |   |   |   |   |   |   |   |   |   |   |   |   |   |   |   |   |   x2bar <= 4: J (2.0/1.0)
|   |   |   |   |   |   |   |   |   |   |   |   |   |   |   |   |   |   x2bar > 4
|   |   |   |   |   |   |   |   |   |   |   |   |   |   |   |   |   |   |   x-ege <= 3
|   |   |   |   |   |   |   |   |   |   |   |   |   |   |   |   |   |   |   |   xybar <= 7: G (2.0)
|   |   |   |   |   |   |   |   |   |   |   |   |   |   |   |   |   |   |   |   xybar > 7: O (4.0)
|   |   |   |   |   |   |   |   |   |   |   |   |   |   |   |   |   |   |   x-ege > 3: G (3.0)
|   |   |   |   |   |   |   |   |   |   |   |   |   |   |   |   |   x-ege > 4
|   |   |   |   |   |   |   |   |   |   |   |   |   |   |   |   |   |   xy2br <= 6: R (3.0)
|   |   |   |   |   |   |   |   |   |   |   |   |   |   |   |   |   |   xy2br > 6: J (3.0/1.0)
|   |   |   |   |   |   |   |   |   |   |   |   |   |   |   yegvx > 7
|   |   |   |   |   |   |   |   |   |   |   |   |   |   |   |   y-bar <= 6
|   |   |   |   |   |   |   |   |   |   |   |   |   |   |   |   |   yegvx <= 8: D (9.0)
|   |   |   |   |   |   |   |   |   |   |   |   |   |   |   |   |   yegvx > 8
|   |   |   |   |   |   |   |   |   |   |   |   |   |   |   |   |   |   xybar <= 10
|   |   |   |   |   |   |   |   |   |   |   |   |   |   |   |   |   |   |   xybar <= 9: D (3.0/1.0)
|   |   |   |   |   |   |   |   |   |   |   |   |   |   |   |   |   |   |   xybar > 9
|   |   |   |   |   |   |   |   |   |   |   |   |   |   |   |   |   |   |   |   x-box <= 5
|   |   |   |   |   |   |   |   |   |   |   |   |   |   |   |   |   |   |   |   |   x2ybr <= 3
|   |   |   |   |   |   |   |   |   |   |   |   |   |   |   |   |   |   |   |   |   |   yegvx <= 9: D (2.0/1.0)
|   |   |   |   |   |   |   |   |   |   |   |   |   |   |   |   |   |   |   |   |   |   yegvx > 9: R (6.0)
|   |   |   |   |   |   |   |   |   |   |   |   |   |   |   |   |   |   |   |   |   x2ybr > 3: B (3.0/1.0)
|   |   |   |   |   |   |   |   |   |   |   |   |   |   |   |   |   |   |   |   x-box > 5: H (12.0/1.0)
|   |   |   |   |   |   |   |   |   |   |   |   |   |   |   |   |   |   xybar > 10
|   |   |   |   |   |   |   |   |   |   |   |   |   |   |   |   |   |   |   xy2br <= 6: R (3.0/1.0)
|   |   |   |   |   |   |   |   |   |   |   |   |   |   |   |   |   |   |   xy2br > 6: D (11.0/3.0)
|   |   |   |   |   |   |   |   |   |   |   |   |   |   |   |   y-bar > 6
|   |   |   |   |   |   |   |   |   |   |   |   |   |   |   |   |   x-box <= 5
|   |   |   |   |   |   |   |   |   |   |   |   |   |   |   |   |   |   xybar <= 9: R (92.0)
|   |   |   |   |   |   |   |   |   |   |   |   |   |   |   |   |   |   xybar > 9
|   |   |   |   |   |   |   |   |   |   |   |   |   |   |   |   |   |   |   x2ybr <= 4
|   |   |   |   |   |   |   |   |   |   |   |   |   |   |   |   |   |   |   |   high <= 3: H (4.0/1.0)
|   |   |   |   |   |   |   |   |   |   |   |   |   |   |   |   |   |   |   |   high > 3
|   |   |   |   |   |   |   |   |   |   |   |   |   |   |   |   |   |   |   |   |   onpix <= 6: R (50.0/1.0)
|   |   |   |   |   |   |   |   |   |   |   |   |   |   |   |   |   |   |   |   |   onpix > 6
|   |   |   |   |   |   |   |   |   |   |   |   |   |   |   |   |   |   |   |   |   |   xegvy <= 6: R (2.0)
|   |   |   |   |   |   |   |   |   |   |   |   |   |   |   |   |   |   |   |   |   |   xegvy > 6: B (2.0/1.0)
|   |   |   |   |   |   |   |   |   |   |   |   |   |   |   |   |   |   |   x2ybr > 4
|   |   |   |   |   |   |   |   |   |   |   |   |   |   |   |   |   |   |   |   y-bar <= 7: D (5.0)
|   |   |   |   |   |   |   |   |   |   |   |   |   |   |   |   |   |   |   |   y-bar > 7: B (4.0)
|   |   |   |   |   |   |   |   |   |   |   |   |   |   |   |   |   x-box > 5
|   |   |   |   |   |   |   |   |   |   |   |   |   |   |   |   |   |   yegvx <= 9: H (6.0/1.0)
|   |   |   |   |   |   |   |   |   |   |   |   |   |   |   |   |   |   yegvx > 9: R (10.0)
|   |   |   |   |   |   |   |   |   |   |   |   |   |   xegvy > 7
|   |   |   |   |   |   |   |   |   |   |   |   |   |   |   yegvx <= 9
|   |   |   |   |   |   |   |   |   |   |   |   |   |   |   |   y-ege <= 3
|   |   |   |   |   |   |   |   |   |   |   |   |   |   |   |   |   xy2br <= 6
|   |   |   |   |   |   |   |   |   |   |   |   |   |   |   |   |   |   x2ybr <= 5: D (42.0/2.0)
|   |   |   |   |   |   |   |   |   |   |   |   |   |   |   |   |   |   x2ybr > 5
|   |   |   |   |   |   |   |   |   |   |   |   |   |   |   |   |   |   |   x-bar <= 7: D (7.0)
|   |   |   |   |   |   |   |   |   |   |   |   |   |   |   |   |   |   |   x-bar > 7: H (9.0/1.0)
|   |   |   |   |   |   |   |   |   |   |   |   |   |   |   |   |   xy2br > 6
|   |   |   |   |   |   |   |   |   |   |   |   |   |   |   |   |   |   xybar <= 10
|   |   |   |   |   |   |   |   |   |   |   |   |   |   |   |   |   |   |   x-ege <= 3: H (31.0/1.0)
|   |   |   |   |   |   |   |   |   |   |   |   |   |   |   |   |   |   |   x-ege > 3: D (5.0/2.0)
|   |   |   |   |   |   |   |   |   |   |   |   |   |   |   |   |   |   xybar > 10: D (2.0)
|   |   |   |   |   |   |   |   |   |   |   |   |   |   |   |   y-ege > 3
|   |   |   |   |   |   |   |   |   |   |   |   |   |   |   |   |   width <= 5
|   |   |   |   |   |   |   |   |   |   |   |   |   |   |   |   |   |   x-box <= 5
|   |   |   |   |   |   |   |   |   |   |   |   |   |   |   |   |   |   |   xybar <= 7: B (5.0/1.0)
|   |   |   |   |   |   |   |   |   |   |   |   |   |   |   |   |   |   |   xybar > 7: D (5.0/1.0)
|   |   |   |   |   |   |   |   |   |   |   |   |   |   |   |   |   |   x-box > 5: O (3.0)
|   |   |   |   |   |   |   |   |   |   |   |   |   |   |   |   |   width > 5
|   |   |   |   |   |   |   |   |   |   |   |   |   |   |   |   |   |   y-bar <= 6
|   |   |   |   |   |   |   |   |   |   |   |   |   |   |   |   |   |   |   high <= 5: H (2.0)
|   |   |   |   |   |   |   |   |   |   |   |   |   |   |   |   |   |   |   high > 5: D (4.0)
|   |   |   |   |   |   |   |   |   |   |   |   |   |   |   |   |   |   y-bar > 6
|   |   |   |   |   |   |   |   |   |   |   |   |   |   |   |   |   |   |   onpix <= 4: K (4.0/1.0)
|   |   |   |   |   |   |   |   |   |   |   |   |   |   |   |   |   |   |   onpix > 4
|   |   |   |   |   |   |   |   |   |   |   |   |   |   |   |   |   |   |   |   x-bar <= 7
|   |   |   |   |   |   |   |   |   |   |   |   |   |   |   |   |   |   |   |   |   yegvx <= 7: H (2.0)
|   |   |   |   |   |   |   |   |   |   |   |   |   |   |   |   |   |   |   |   |   yegvx > 7: R (5.0)
|   |   |   |   |   |   |   |   |   |   |   |   |   |   |   |   |   |   |   |   x-bar > 7
|   |   |   |   |   |   |   |   |   |   |   |   |   |   |   |   |   |   |   |   |   xy2br <= 6
|   |   |   |   |   |   |   |   |   |   |   |   |   |   |   |   |   |   |   |   |   |   xybar <= 8: H (2.0)
|   |   |   |   |   |   |   |   |   |   |   |   |   |   |   |   |   |   |   |   |   |   xybar > 8: B (3.0/1.0)
|   |   |   |   |   |   |   |   |   |   |   |   |   |   |   |   |   |   |   |   |   xy2br > 6: H (12.0/1.0)
|   |   |   |   |   |   |   |   |   |   |   |   |   |   |   yegvx > 9
|   |   |   |   |   |   |   |   |   |   |   |   |   |   |   |   xegvy <= 8
|   |   |   |   |   |   |   |   |   |   |   |   |   |   |   |   |   x2ybr <= 3: H (5.0/1.0)
|   |   |   |   |   |   |   |   |   |   |   |   |   |   |   |   |   x2ybr > 3
|   |   |   |   |   |   |   |   |   |   |   |   |   |   |   |   |   |   x2bar <= 5: B (11.0/1.0)
|   |   |   |   |   |   |   |   |   |   |   |   |   |   |   |   |   |   x2bar > 5: R (3.0/1.0)
|   |   |   |   |   |   |   |   |   |   |   |   |   |   |   |   xegvy > 8
|   |   |   |   |   |   |   |   |   |   |   |   |   |   |   |   |   x-bar <= 10: H (3.0/1.0)
|   |   |   |   |   |   |   |   |   |   |   |   |   |   |   |   |   x-bar > 10: X (3.0/1.0)
|   |   |   |   |   |   |   |   |   |   |   |   |   y-box > 11
|   |   |   |   |   |   |   |   |   |   |   |   |   |   x2bar <= 4
|   |   |   |   |   |   |   |   |   |   |   |   |   |   |   width <= 5
|   |   |   |   |   |   |   |   |   |   |   |   |   |   |   |   y2bar <= 5: Q (2.0/1.0)
|   |   |   |   |   |   |   |   |   |   |   |   |   |   |   |   y2bar > 5: I (3.0)
|   |   |   |   |   |   |   |   |   |   |   |   |   |   |   width > 5
|   |   |   |   |   |   |   |   |   |   |   |   |   |   |   |   y2bar <= 7
|   |   |   |   |   |   |   |   |   |   |   |   |   |   |   |   |   y-bar <= 5: D (6.0/1.0)
|   |   |   |   |   |   |   |   |   |   |   |   |   |   |   |   |   y-bar > 5
|   |   |   |   |   |   |   |   |   |   |   |   |   |   |   |   |   |   y-ege <= 4: K (14.0/1.0)
|   |   |   |   |   |   |   |   |   |   |   |   |   |   |   |   |   |   y-ege > 4: H (7.0)
|   |   |   |   |   |   |   |   |   |   |   |   |   |   |   |   y2bar > 7: X (6.0/1.0)
|   |   |   |   |   |   |   |   |   |   |   |   |   |   x2bar > 4
|   |   |   |   |   |   |   |   |   |   |   |   |   |   |   onpix <= 3: O (6.0)
|   |   |   |   |   |   |   |   |   |   |   |   |   |   |   onpix > 3: H (3.0/2.0)
|   |   |   |   |   |   |   |   |   |   |   |   y-ege > 5
|   |   |   |   |   |   |   |   |   |   |   |   |   y2bar <= 7
|   |   |   |   |   |   |   |   |   |   |   |   |   |   xybar <= 8
|   |   |   |   |   |   |   |   |   |   |   |   |   |   |   y-ege <= 7
|   |   |   |   |   |   |   |   |   |   |   |   |   |   |   |   x2ybr <= 4
|   |   |   |   |   |   |   |   |   |   |   |   |   |   |   |   |   x2ybr <= 3
|   |   |   |   |   |   |   |   |   |   |   |   |   |   |   |   |   |   x2ybr <= 2: S (2.0)
|   |   |   |   |   |   |   |   |   |   |   |   |   |   |   |   |   |   x2ybr > 2: Z (3.0)
|   |   |   |   |   |   |   |   |   |   |   |   |   |   |   |   |   x2ybr > 3
|   |   |   |   |   |   |   |   |   |   |   |   |   |   |   |   |   |   y2bar <= 5: O (3.0)
|   |   |   |   |   |   |   |   |   |   |   |   |   |   |   |   |   |   y2bar > 5
|   |   |   |   |   |   |   |   |   |   |   |   |   |   |   |   |   |   |   xybar <= 7: Q (2.0/1.0)
|   |   |   |   |   |   |   |   |   |   |   |   |   |   |   |   |   |   |   xybar > 7: D (5.0/1.0)
|   |   |   |   |   |   |   |   |   |   |   |   |   |   |   |   x2ybr > 4
|   |   |   |   |   |   |   |   |   |   |   |   |   |   |   |   |   x2ybr <= 6
|   |   |   |   |   |   |   |   |   |   |   |   |   |   |   |   |   |   xybar <= 7
|   |   |   |   |   |   |   |   |   |   |   |   |   |   |   |   |   |   |   xegvy <= 6: R (6.0/1.0)
|   |   |   |   |   |   |   |   |   |   |   |   |   |   |   |   |   |   |   xegvy > 6
|   |   |   |   |   |   |   |   |   |   |   |   |   |   |   |   |   |   |   |   x-bar <= 6: H (2.0/1.0)
|   |   |   |   |   |   |   |   |   |   |   |   |   |   |   |   |   |   |   |   x-bar > 6
|   |   |   |   |   |   |   |   |   |   |   |   |   |   |   |   |   |   |   |   |   xybar <= 6
|   |   |   |   |   |   |   |   |   |   |   |   |   |   |   |   |   |   |   |   |   |   x2ybr <= 5: R (2.0)
|   |   |   |   |   |   |   |   |   |   |   |   |   |   |   |   |   |   |   |   |   |   x2ybr > 5: B (4.0/1.0)
|   |   |   |   |   |   |   |   |   |   |   |   |   |   |   |   |   |   |   |   |   xybar > 6: B (19.0/1.0)
|   |   |   |   |   |   |   |   |   |   |   |   |   |   |   |   |   |   xybar > 7: R (6.0/1.0)
|   |   |   |   |   |   |   |   |   |   |   |   |   |   |   |   |   x2ybr > 6: X (4.0/1.0)
|   |   |   |   |   |   |   |   |   |   |   |   |   |   |   y-ege > 7
|   |   |   |   |   |   |   |   |   |   |   |   |   |   |   |   x2bar <= 3: X (12.0)
|   |   |   |   |   |   |   |   |   |   |   |   |   |   |   |   x2bar > 3
|   |   |   |   |   |   |   |   |   |   |   |   |   |   |   |   |   xegvy <= 7
|   |   |   |   |   |   |   |   |   |   |   |   |   |   |   |   |   |   y-box <= 8
|   |   |   |   |   |   |   |   |   |   |   |   |   |   |   |   |   |   |   x-box <= 4: D (3.0)
|   |   |   |   |   |   |   |   |   |   |   |   |   |   |   |   |   |   |   x-box > 4: H (2.0/1.0)
|   |   |   |   |   |   |   |   |   |   |   |   |   |   |   |   |   |   y-box > 8: K (5.0)
|   |   |   |   |   |   |   |   |   |   |   |   |   |   |   |   |   xegvy > 7
|   |   |   |   |   |   |   |   |   |   |   |   |   |   |   |   |   |   y-bar <= 6
|   |   |   |   |   |   |   |   |   |   |   |   |   |   |   |   |   |   |   x-box <= 4: L (2.0)
|   |   |   |   |   |   |   |   |   |   |   |   |   |   |   |   |   |   |   x-box > 4: B (2.0)
|   |   |   |   |   |   |   |   |   |   |   |   |   |   |   |   |   |   y-bar > 6
|   |   |   |   |   |   |   |   |   |   |   |   |   |   |   |   |   |   |   x-ege <= 4
|   |   |   |   |   |   |   |   |   |   |   |   |   |   |   |   |   |   |   |   x2bar <= 4
|   |   |   |   |   |   |   |   |   |   |   |   |   |   |   |   |   |   |   |   |   x2ybr <= 6
|   |   |   |   |   |   |   |   |   |   |   |   |   |   |   |   |   |   |   |   |   |   x-bar <= 7
|   |   |   |   |   |   |   |   |   |   |   |   |   |   |   |   |   |   |   |   |   |   |   y-bar <= 7: J (3.0/1.0)
|   |   |   |   |   |   |   |   |   |   |   |   |   |   |   |   |   |   |   |   |   |   |   y-bar > 7: F (2.0)
|   |   |   |   |   |   |   |   |   |   |   |   |   |   |   |   |   |   |   |   |   |   x-bar > 7
|   |   |   |   |   |   |   |   |   |   |   |   |   |   |   |   |   |   |   |   |   |   |   high <= 8: I (3.0)
|   |   |   |   |   |   |   |   |   |   |   |   |   |   |   |   |   |   |   |   |   |   |   high > 8: J (2.0)
|   |   |   |   |   |   |   |   |   |   |   |   |   |   |   |   |   |   |   |   |   x2ybr > 6: J (8.0)
|   |   |   |   |   |   |   |   |   |   |   |   |   |   |   |   |   |   |   |   x2bar > 4: I (4.0)
|   |   |   |   |   |   |   |   |   |   |   |   |   |   |   |   |   |   |   x-ege > 4
|   |   |   |   |   |   |   |   |   |   |   |   |   |   |   |   |   |   |   |   xybar <= 6: J (2.0/1.0)
|   |   |   |   |   |   |   |   |   |   |   |   |   |   |   |   |   |   |   |   xybar > 6: S (9.0/1.0)
|   |   |   |   |   |   |   |   |   |   |   |   |   |   xybar > 8
|   |   |   |   |   |   |   |   |   |   |   |   |   |   |   y-bar <= 6
|   |   |   |   |   |   |   |   |   |   |   |   |   |   |   |   high <= 9
|   |   |   |   |   |   |   |   |   |   |   |   |   |   |   |   |   x-ege <= 4
|   |   |   |   |   |   |   |   |   |   |   |   |   |   |   |   |   |   y2bar <= 5
|   |   |   |   |   |   |   |   |   |   |   |   |   |   |   |   |   |   |   x-bar <= 9: D (3.0/2.0)
|   |   |   |   |   |   |   |   |   |   |   |   |   |   |   |   |   |   |   x-bar > 9: F (2.0)
|   |   |   |   |   |   |   |   |   |   |   |   |   |   |   |   |   |   y2bar > 5
|   |   |   |   |   |   |   |   |   |   |   |   |   |   |   |   |   |   |   y-box <= 11
|   |   |   |   |   |   |   |   |   |   |   |   |   |   |   |   |   |   |   |   onpix <= 4: Q (7.0/2.0)
|   |   |   |   |   |   |   |   |   |   |   |   |   |   |   |   |   |   |   |   onpix > 4: B (15.0)
|   |   |   |   |   |   |   |   |   |   |   |   |   |   |   |   |   |   |   y-box > 11: Q (8.0)
|   |   |   |   |   |   |   |   |   |   |   |   |   |   |   |   |   x-ege > 4
|   |   |   |   |   |   |   |   |   |   |   |   |   |   |   |   |   |   x2ybr <= 2: R (2.0)
|   |   |   |   |   |   |   |   |   |   |   |   |   |   |   |   |   |   x2ybr > 2
|   |   |   |   |   |   |   |   |   |   |   |   |   |   |   |   |   |   |   x-bar <= 9: D (12.0)
|   |   |   |   |   |   |   |   |   |   |   |   |   |   |   |   |   |   |   x-bar > 9
|   |   |   |   |   |   |   |   |   |   |   |   |   |   |   |   |   |   |   |   width <= 6: D (3.0)
|   |   |   |   |   |   |   |   |   |   |   |   |   |   |   |   |   |   |   |   width > 6: B (8.0/1.0)
|   |   |   |   |   |   |   |   |   |   |   |   |   |   |   |   high > 9: Z (4.0)
|   |   |   |   |   |   |   |   |   |   |   |   |   |   |   y-bar > 6: B (61.0/7.0)
|   |   |   |   |   |   |   |   |   |   |   |   |   y2bar > 7: X (22.0/1.0)
|   |   |   |   |   |   |   |   |   |   x2bar > 6
|   |   |   |   |   |   |   |   |   |   |   x2bar <= 9
|   |   |   |   |   |   |   |   |   |   |   |   y-ege <= 4
|   |   |   |   |   |   |   |   |   |   |   |   |   y-bar <= 5
|   |   |   |   |   |   |   |   |   |   |   |   |   |   x2ybr <= 4: O (5.0/1.0)
|   |   |   |   |   |   |   |   |   |   |   |   |   |   x2ybr > 4: Q (4.0/1.0)
|   |   |   |   |   |   |   |   |   |   |   |   |   y-bar > 5
|   |   |   |   |   |   |   |   |   |   |   |   |   |   xegvy <= 7
|   |   |   |   |   |   |   |   |   |   |   |   |   |   |   x-bar <= 7
|   |   |   |   |   |   |   |   |   |   |   |   |   |   |   |   x2ybr <= 6: N (17.0)
|   |   |   |   |   |   |   |   |   |   |   |   |   |   |   |   x2ybr > 6: D (2.0)
|   |   |   |   |   |   |   |   |   |   |   |   |   |   |   x-bar > 7: O (4.0)
|   |   |   |   |   |   |   |   |   |   |   |   |   |   xegvy > 7
|   |   |   |   |   |   |   |   |   |   |   |   |   |   |   width <= 7
|   |   |   |   |   |   |   |   |   |   |   |   |   |   |   |   x2bar <= 7
|   |   |   |   |   |   |   |   |   |   |   |   |   |   |   |   |   y2bar <= 5
|   |   |   |   |   |   |   |   |   |   |   |   |   |   |   |   |   |   y2bar <= 4: O (10.0/1.0)
|   |   |   |   |   |   |   |   |   |   |   |   |   |   |   |   |   |   y2bar > 4: D (3.0/1.0)
|   |   |   |   |   |   |   |   |   |   |   |   |   |   |   |   |   y2bar > 5: H (6.0/1.0)
|   |   |   |   |   |   |   |   |   |   |   |   |   |   |   |   x2bar > 7
|   |   |   |   |   |   |   |   |   |   |   |   |   |   |   |   |   x-ege <= 3
|   |   |   |   |   |   |   |   |   |   |   |   |   |   |   |   |   |   x-bar <= 6
|   |   |   |   |   |   |   |   |   |   |   |   |   |   |   |   |   |   |   width <= 5: D (4.0)
|   |   |   |   |   |   |   |   |   |   |   |   |   |   |   |   |   |   |   width > 5: O (4.0)
|   |   |   |   |   |   |   |   |   |   |   |   |   |   |   |   |   |   x-bar > 6: O (44.0)
|   |   |   |   |   |   |   |   |   |   |   |   |   |   |   |   |   x-ege > 3
|   |   |   |   |   |   |   |   |   |   |   |   |   |   |   |   |   |   x-bar <= 7: N (2.0)
|   |   |   |   |   |   |   |   |   |   |   |   |   |   |   |   |   |   x-bar > 7: O (2.0)
|   |   |   |   |   |   |   |   |   |   |   |   |   |   |   width > 7
|   |   |   |   |   |   |   |   |   |   |   |   |   |   |   |   x2bar <= 7: D (2.0)
|   |   |   |   |   |   |   |   |   |   |   |   |   |   |   |   x2bar > 7: N (3.0)
|   |   |   |   |   |   |   |   |   |   |   |   y-ege > 4
|   |   |   |   |   |   |   |   |   |   |   |   |   y2bar <= 3: R (18.0)
|   |   |   |   |   |   |   |   |   |   |   |   |   y2bar > 3
|   |   |   |   |   |   |   |   |   |   |   |   |   |   y2bar <= 6
|   |   |   |   |   |   |   |   |   |   |   |   |   |   |   xegvy <= 8
|   |   |   |   |   |   |   |   |   |   |   |   |   |   |   |   y-bar <= 6: Q (17.0/3.0)
|   |   |   |   |   |   |   |   |   |   |   |   |   |   |   |   y-bar > 6
|   |   |   |   |   |   |   |   |   |   |   |   |   |   |   |   |   x2ybr <= 6
|   |   |   |   |   |   |   |   |   |   |   |   |   |   |   |   |   |   x-box <= 5
|   |   |   |   |   |   |   |   |   |   |   |   |   |   |   |   |   |   |   xegvy <= 7
|   |   |   |   |   |   |   |   |   |   |   |   |   |   |   |   |   |   |   |   x-bar <= 7: H (3.0)
|   |   |   |   |   |   |   |   |   |   |   |   |   |   |   |   |   |   |   |   x-bar > 7: R (3.0)
|   |   |   |   |   |   |   |   |   |   |   |   |   |   |   |   |   |   |   xegvy > 7: R (7.0/1.0)
|   |   |   |   |   |   |   |   |   |   |   |   |   |   |   |   |   |   x-box > 5
|   |   |   |   |   |   |   |   |   |   |   |   |   |   |   |   |   |   |   x-bar <= 7: H (5.0)
|   |   |   |   |   |   |   |   |   |   |   |   |   |   |   |   |   |   |   x-bar > 7: O (4.0/1.0)
|   |   |   |   |   |   |   |   |   |   |   |   |   |   |   |   |   x2ybr > 6: Q (3.0/1.0)
|   |   |   |   |   |   |   |   |   |   |   |   |   |   |   xegvy > 8
|   |   |   |   |   |   |   |   |   |   |   |   |   |   |   |   y-ege <= 6: O (2.0/1.0)
|   |   |   |   |   |   |   |   |   |   |   |   |   |   |   |   y-ege > 6: P (3.0)
|   |   |   |   |   |   |   |   |   |   |   |   |   |   y2bar > 6
|   |   |   |   |   |   |   |   |   |   |   |   |   |   |   y-ege <= 6: O (2.0)
|   |   |   |   |   |   |   |   |   |   |   |   |   |   |   y-ege > 6: B (5.0)
|   |   |   |   |   |   |   |   |   |   |   x2bar > 9
|   |   |   |   |   |   |   |   |   |   |   |   xy2br <= 6: D (40.0)
|   |   |   |   |   |   |   |   |   |   |   |   xy2br > 6: B (2.0)
|   |   |   |   |   y-bar > 8
|   |   |   |   |   |   x-bar <= 8
|   |   |   |   |   |   |   xegvy <= 8
|   |   |   |   |   |   |   |   x-ege <= 4
|   |   |   |   |   |   |   |   |   width <= 3: R (8.0)
|   |   |   |   |   |   |   |   |   width > 3
|   |   |   |   |   |   |   |   |   |   x2ybr <= 6
|   |   |   |   |   |   |   |   |   |   |   xy2br <= 4: D (2.0)
|   |   |   |   |   |   |   |   |   |   |   xy2br > 4
|   |   |   |   |   |   |   |   |   |   |   |   xybar <= 6: R (2.0/1.0)
|   |   |   |   |   |   |   |   |   |   |   |   xybar > 6
|   |   |   |   |   |   |   |   |   |   |   |   |   xegvy <= 7
|   |   |   |   |   |   |   |   |   |   |   |   |   |   x-ege <= 2: S (8.0/1.0)
|   |   |   |   |   |   |   |   |   |   |   |   |   |   x-ege > 2
|   |   |   |   |   |   |   |   |   |   |   |   |   |   |   yegvx <= 8
|   |   |   |   |   |   |   |   |   |   |   |   |   |   |   |   y-ege <= 5: N (2.0/1.0)
|   |   |   |   |   |   |   |   |   |   |   |   |   |   |   |   y-ege > 5: B (4.0)
|   |   |   |   |   |   |   |   |   |   |   |   |   |   |   yegvx > 8: H (5.0)
|   |   |   |   |   |   |   |   |   |   |   |   |   xegvy > 7: B (20.0/2.0)
|   |   |   |   |   |   |   |   |   |   x2ybr > 6
|   |   |   |   |   |   |   |   |   |   |   yegvx <= 6: S (14.0/1.0)
|   |   |   |   |   |   |   |   |   |   |   yegvx > 6
|   |   |   |   |   |   |   |   |   |   |   |   onpix <= 5: O (2.0/1.0)
|   |   |   |   |   |   |   |   |   |   |   |   onpix > 5: I (2.0)
|   |   |   |   |   |   |   |   x-ege > 4
|   |   |   |   |   |   |   |   |   y-ege <= 7
|   |   |   |   |   |   |   |   |   |   xybar <= 7
|   |   |   |   |   |   |   |   |   |   |   x-ege <= 8: N (11.0/1.0)
|   |   |   |   |   |   |   |   |   |   |   x-ege > 8
|   |   |   |   |   |   |   |   |   |   |   |   x2ybr <= 4: N (2.0)
|   |   |   |   |   |   |   |   |   |   |   |   x2ybr > 4: M (4.0)
|   |   |   |   |   |   |   |   |   |   xybar > 7
|   |   |   |   |   |   |   |   |   |   |   xybar <= 9
|   |   |   |   |   |   |   |   |   |   |   |   high <= 5: R (2.0)
|   |   |   |   |   |   |   |   |   |   |   |   high > 5: B (2.0/1.0)
|   |   |   |   |   |   |   |   |   |   |   xybar > 9: D (2.0)
|   |   |   |   |   |   |   |   |   y-ege > 7
|   |   |   |   |   |   |   |   |   |   x-bar <= 7
|   |   |   |   |   |   |   |   |   |   |   yegvx <= 9: F (5.0)
|   |   |   |   |   |   |   |   |   |   |   yegvx > 9: K (2.0)
|   |   |   |   |   |   |   |   |   |   x-bar > 7
|   |   |   |   |   |   |   |   |   |   |   y2bar <= 3: H (4.0)
|   |   |   |   |   |   |   |   |   |   |   y2bar > 3: R (2.0/1.0)
|   |   |   |   |   |   |   xegvy > 8
|   |   |   |   |   |   |   |   y-ege <= 6
|   |   |   |   |   |   |   |   |   yegvx <= 6
|   |   |   |   |   |   |   |   |   |   y2bar <= 3
|   |   |   |   |   |   |   |   |   |   |   y-ege <= 4: W (28.0/1.0)
|   |   |   |   |   |   |   |   |   |   |   y-ege > 4: P (5.0/1.0)
|   |   |   |   |   |   |   |   |   |   y2bar > 3
|   |   |   |   |   |   |   |   |   |   |   xy2br <= 4: P (4.0)
|   |   |   |   |   |   |   |   |   |   |   xy2br > 4
|   |   |   |   |   |   |   |   |   |   |   |   x2bar <= 5
|   |   |   |   |   |   |   |   |   |   |   |   |   y2bar <= 5: F (13.0)
|   |   |   |   |   |   |   |   |   |   |   |   |   y2bar > 5
|   |   |   |   |   |   |   |   |   |   |   |   |   |   y-ege <= 4: T (2.0)
|   |   |   |   |   |   |   |   |   |   |   |   |   |   y-ege > 4
|   |   |   |   |   |   |   |   |   |   |   |   |   |   |   x-box <= 6: T (3.0/1.0)
|   |   |   |   |   |   |   |   |   |   |   |   |   |   |   x-box > 6: F (4.0)
|   |   |   |   |   |   |   |   |   |   |   |   x2bar > 5: Z (2.0/1.0)
|   |   |   |   |   |   |   |   |   yegvx > 6
|   |   |   |   |   |   |   |   |   |   xybar <= 7: O (3.0/1.0)
|   |   |   |   |   |   |   |   |   |   xybar > 7
|   |   |   |   |   |   |   |   |   |   |   y2bar <= 5
|   |   |   |   |   |   |   |   |   |   |   |   xegvy <= 9
|   |   |   |   |   |   |   |   |   |   |   |   |   xy2br <= 5: P (10.0/1.0)
|   |   |   |   |   |   |   |   |   |   |   |   |   xy2br > 5
|   |   |   |   |   |   |   |   |   |   |   |   |   |   x-ege <= 4: O (5.0/1.0)
|   |   |   |   |   |   |   |   |   |   |   |   |   |   x-ege > 4: P (3.0)
|   |   |   |   |   |   |   |   |   |   |   |   xegvy > 9: P (85.0/2.0)
|   |   |   |   |   |   |   |   |   |   |   y2bar > 5
|   |   |   |   |   |   |   |   |   |   |   |   xegvy <= 9: C (3.0/1.0)
|   |   |   |   |   |   |   |   |   |   |   |   xegvy > 9: P (6.0/1.0)
|   |   |   |   |   |   |   |   y-ege > 6
|   |   |   |   |   |   |   |   |   xegvy <= 10
|   |   |   |   |   |   |   |   |   |   x-bar <= 7
|   |   |   |   |   |   |   |   |   |   |   x2bar <= 5
|   |   |   |   |   |   |   |   |   |   |   |   width <= 4: G (2.0)
|   |   |   |   |   |   |   |   |   |   |   |   width > 4: F (27.0)
|   |   |   |   |   |   |   |   |   |   |   x2bar > 5: B (2.0)
|   |   |   |   |   |   |   |   |   |   x-bar > 7
|   |   |   |   |   |   |   |   |   |   |   xybar <= 10
|   |   |   |   |   |   |   |   |   |   |   |   y2bar <= 3: H (2.0)
|   |   |   |   |   |   |   |   |   |   |   |   y2bar > 3
|   |   |   |   |   |   |   |   |   |   |   |   |   y2bar <= 4
|   |   |   |   |   |   |   |   |   |   |   |   |   |   x2ybr <= 5: S (6.0)
|   |   |   |   |   |   |   |   |   |   |   |   |   |   x2ybr > 5: D (3.0)
|   |   |   |   |   |   |   |   |   |   |   |   |   y2bar > 4: I (2.0)
|   |   |   |   |   |   |   |   |   |   |   xybar > 10: F (6.0/1.0)
|   |   |   |   |   |   |   |   |   xegvy > 10
|   |   |   |   |   |   |   |   |   |   xybar <= 7
|   |   |   |   |   |   |   |   |   |   |   x-ege <= 8: B (2.0/1.0)
|   |   |   |   |   |   |   |   |   |   |   x-ege > 8: G (2.0)
|   |   |   |   |   |   |   |   |   |   xybar > 7
|   |   |   |   |   |   |   |   |   |   |   y-box <= 7: H (5.0)
|   |   |   |   |   |   |   |   |   |   |   y-box > 7: O (2.0/1.0)
|   |   |   |   |   |   x-bar > 8
|   |   |   |   |   |   |   x2ybr <= 5
|   |   |   |   |   |   |   |   x2ybr <= 4
|   |   |   |   |   |   |   |   |   x2bar <= 4: J (5.0/1.0)
|   |   |   |   |   |   |   |   |   x2bar > 4: R (2.0/1.0)
|   |   |   |   |   |   |   |   x2ybr > 4: Z (16.0/1.0)
|   |   |   |   |   |   |   x2ybr > 5
|   |   |   |   |   |   |   |   xegvy <= 9
|   |   |   |   |   |   |   |   |   xybar <= 6: H (2.0/1.0)
|   |   |   |   |   |   |   |   |   xybar > 6: D (7.0)
|   |   |   |   |   |   |   |   xegvy > 9
|   |   |   |   |   |   |   |   |   y2bar <= 2: H (6.0)
|   |   |   |   |   |   |   |   |   y2bar > 2: Y (18.0/1.0)
|   |   |   |   xybar > 11
|   |   |   |   |   high <= 8
|   |   |   |   |   |   y2bar <= 5
|   |   |   |   |   |   |   yegvx <= 8
|   |   |   |   |   |   |   |   x2bar <= 3
|   |   |   |   |   |   |   |   |   y2bar <= 3: J (5.0)
|   |   |   |   |   |   |   |   |   y2bar > 3
|   |   |   |   |   |   |   |   |   |   x2bar <= 2: F (2.0/1.0)
|   |   |   |   |   |   |   |   |   |   x2bar > 2
|   |   |   |   |   |   |   |   |   |   |   x2ybr <= 5: P (13.0/1.0)
|   |   |   |   |   |   |   |   |   |   |   x2ybr > 5
|   |   |   |   |   |   |   |   |   |   |   |   xegvy <= 8: F (8.0)
|   |   |   |   |   |   |   |   |   |   |   |   xegvy > 8
|   |   |   |   |   |   |   |   |   |   |   |   |   x-bar <= 6: P (3.0)
|   |   |   |   |   |   |   |   |   |   |   |   |   x-bar > 6: F (2.0)
|   |   |   |   |   |   |   |   x2bar > 3: P (74.0/1.0)
|   |   |   |   |   |   |   yegvx > 8
|   |   |   |   |   |   |   |   y2bar <= 3: J (9.0)
|   |   |   |   |   |   |   |   y2bar > 3
|   |   |   |   |   |   |   |   |   onpix <= 3
|   |   |   |   |   |   |   |   |   |   y-ege <= 3: P (2.0)
|   |   |   |   |   |   |   |   |   |   y-ege > 3
|   |   |   |   |   |   |   |   |   |   |   x2ybr <= 4: I (18.0/1.0)
|   |   |   |   |   |   |   |   |   |   |   x2ybr > 4
|   |   |   |   |   |   |   |   |   |   |   |   x-bar <= 8: I (3.0)
|   |   |   |   |   |   |   |   |   |   |   |   x-bar > 8: J (2.0)
|   |   |   |   |   |   |   |   |   onpix > 3: P (7.0/1.0)
|   |   |   |   |   |   y2bar > 5
|   |   |   |   |   |   |   yegvx <= 6
|   |   |   |   |   |   |   |   xy2br <= 4: P (3.0/1.0)
|   |   |   |   |   |   |   |   xy2br > 4
|   |   |   |   |   |   |   |   |   yegvx <= 5: T (34.0)
|   |   |   |   |   |   |   |   |   yegvx > 5
|   |   |   |   |   |   |   |   |   |   xy2br <= 5: F (4.0)
|   |   |   |   |   |   |   |   |   |   xy2br > 5
|   |   |   |   |   |   |   |   |   |   |   xegvy <= 8
|   |   |   |   |   |   |   |   |   |   |   |   y-box <= 12: F (3.0/1.0)
|   |   |   |   |   |   |   |   |   |   |   |   y-box > 12: T (2.0)
|   |   |   |   |   |   |   |   |   |   |   xegvy > 8: T (8.0/1.0)
|   |   |   |   |   |   |   yegvx > 6
|   |   |   |   |   |   |   |   xy2br <= 6
|   |   |   |   |   |   |   |   |   yegvx <= 9
|   |   |   |   |   |   |   |   |   |   y-box <= 12
|   |   |   |   |   |   |   |   |   |   |   y2bar <= 7
|   |   |   |   |   |   |   |   |   |   |   |   xy2br <= 3: P (5.0)
|   |   |   |   |   |   |   |   |   |   |   |   xy2br > 3
|   |   |   |   |   |   |   |   |   |   |   |   |   x2bar <= 3
|   |   |   |   |   |   |   |   |   |   |   |   |   |   yegvx <= 8: F (22.0)
|   |   |   |   |   |   |   |   |   |   |   |   |   |   yegvx > 8
|   |   |   |   |   |   |   |   |   |   |   |   |   |   |   x2bar <= 1: F (5.0)
|   |   |   |   |   |   |   |   |   |   |   |   |   |   |   x2bar > 1
|   |   |   |   |   |   |   |   |   |   |   |   |   |   |   |   x2ybr <= 4: F (10.0/1.0)
|   |   |   |   |   |   |   |   |   |   |   |   |   |   |   |   x2ybr > 4: P (6.0/2.0)
|   |   |   |   |   |   |   |   |   |   |   |   |   x2bar > 3: P (7.0/1.0)
|   |   |   |   |   |   |   |   |   |   |   y2bar > 7: F (2.0/1.0)
|   |   |   |   |   |   |   |   |   |   y-box > 12
|   |   |   |   |   |   |   |   |   |   |   y-ege <= 6: I (4.0)
|   |   |   |   |   |   |   |   |   |   |   y-ege > 6: F (2.0)
|   |   |   |   |   |   |   |   |   yegvx > 9
|   |   |   |   |   |   |   |   |   |   x-ege <= 3: I (9.0/1.0)
|   |   |   |   |   |   |   |   |   |   x-ege > 3: P (2.0)
|   |   |   |   |   |   |   |   xy2br > 6
|   |   |   |   |   |   |   |   |   y-bar <= 6
|   |   |   |   |   |   |   |   |   |   y-bar <= 5: I (2.0/1.0)
|   |   |   |   |   |   |   |   |   |   y-bar > 5: D (3.0)
|   |   |   |   |   |   |   |   |   y-bar > 6
|   |   |   |   |   |   |   |   |   |   width <= 6
|   |   |   |   |   |   |   |   |   |   |   x-box <= 7: S (3.0)
|   |   |   |   |   |   |   |   |   |   |   x-box > 7: C (2.0)
|   |   |   |   |   |   |   |   |   |   width > 6: X (2.0/1.0)
|   |   |   |   |   high > 8
|   |   |   |   |   |   x2ybr <= 6
|   |   |   |   |   |   |   x2bar <= 3: J (25.0/1.0)
|   |   |   |   |   |   |   x2bar > 3: D (2.0/1.0)
|   |   |   |   |   |   x2ybr > 6: Z (7.0)
|   |   |   x2ybr > 7
|   |   |   |   xybar <= 9
|   |   |   |   |   x-ege <= 5
|   |   |   |   |   |   x2bar <= 7
|   |   |   |   |   |   |   y-bar <= 8
|   |   |   |   |   |   |   |   yegvx <= 7
|   |   |   |   |   |   |   |   |   xybar <= 3: U (3.0)
|   |   |   |   |   |   |   |   |   xybar > 3
|   |   |   |   |   |   |   |   |   |   y-box <= 5: P (3.0/1.0)
|   |   |   |   |   |   |   |   |   |   y-box > 5
|   |   |   |   |   |   |   |   |   |   |   x2ybr <= 8
|   |   |   |   |   |   |   |   |   |   |   |   y2bar <= 5
|   |   |   |   |   |   |   |   |   |   |   |   |   y-box <= 6: A (3.0)
|   |   |   |   |   |   |   |   |   |   |   |   |   y-box > 6: Y (12.0/2.0)
|   |   |   |   |   |   |   |   |   |   |   |   y2bar > 5: F (2.0/1.0)
|   |   |   |   |   |   |   |   |   |   |   x2ybr > 8
|   |   |   |   |   |   |   |   |   |   |   |   x-ege <= 4: Y (35.0)
|   |   |   |   |   |   |   |   |   |   |   |   x-ege > 4
|   |   |   |   |   |   |   |   |   |   |   |   |   x-box <= 6: A (2.0)
|   |   |   |   |   |   |   |   |   |   |   |   |   x-box > 6: Y (14.0)
|   |   |   |   |   |   |   |   yegvx > 7
|   |   |   |   |   |   |   |   |   y-bar <= 7: Y (2.0)
|   |   |   |   |   |   |   |   |   y-bar > 7
|   |   |   |   |   |   |   |   |   |   x2bar <= 5: I (5.0/1.0)
|   |   |   |   |   |   |   |   |   |   x2bar > 5: O (2.0/1.0)
|   |   |   |   |   |   |   y-bar > 8
|   |   |   |   |   |   |   |   x2bar <= 3
|   |   |   |   |   |   |   |   |   x2ybr <= 9
|   |   |   |   |   |   |   |   |   |   x2bar <= 1: Y (3.0)
|   |   |   |   |   |   |   |   |   |   x2bar > 1
|   |   |   |   |   |   |   |   |   |   |   y-bar <= 11: P (13.0/2.0)
|   |   |   |   |   |   |   |   |   |   |   y-bar > 11: H (2.0)
|   |   |   |   |   |   |   |   |   x2ybr > 9
|   |   |   |   |   |   |   |   |   |   xy2br <= 6: Y (20.0)
|   |   |   |   |   |   |   |   |   |   xy2br > 6
|   |   |   |   |   |   |   |   |   |   |   x-bar <= 4: Y (2.0)
|   |   |   |   |   |   |   |   |   |   |   x-bar > 4: V (3.0)
|   |   |   |   |   |   |   |   x2bar > 3
|   |   |   |   |   |   |   |   |   onpix <= 5
|   |   |   |   |   |   |   |   |   |   xegvy <= 10: P (4.0/1.0)
|   |   |   |   |   |   |   |   |   |   xegvy > 10: V (29.0)
|   |   |   |   |   |   |   |   |   onpix > 5
|   |   |   |   |   |   |   |   |   |   high <= 8: F (2.0)
|   |   |   |   |   |   |   |   |   |   high > 8: P (2.0)
|   |   |   |   |   |   x2bar > 7
|   |   |   |   |   |   |   x-bar <= 6
|   |   |   |   |   |   |   |   width <= 5: D (3.0)
|   |   |   |   |   |   |   |   width > 5: T (2.0)
|   |   |   |   |   |   |   x-bar > 6: O (8.0)
|   |   |   |   |   x-ege > 5
|   |   |   |   |   |   y-box <= 8
|   |   |   |   |   |   |   x2bar <= 5: P (20.0/1.0)
|   |   |   |   |   |   |   x2bar > 5: W (2.0)
|   |   |   |   |   |   y-box > 8
|   |   |   |   |   |   |   xybar <= 5: U (4.0)
|   |   |   |   |   |   |   xybar > 5
|   |   |   |   |   |   |   |   y-ege <= 6
|   |   |   |   |   |   |   |   |   onpix <= 5
|   |   |   |   |   |   |   |   |   |   x-ege <= 8: V (23.0)
|   |   |   |   |   |   |   |   |   |   x-ege > 8: W (4.0)
|   |   |   |   |   |   |   |   |   onpix > 5: W (18.0)
|   |   |   |   |   |   |   |   y-ege > 6: B (3.0/1.0)
|   |   |   |   xybar > 9
|   |   |   |   |   y-ege <= 5
|   |   |   |   |   |   xy2br <= 6
|   |   |   |   |   |   |   yegvx <= 4
|   |   |   |   |   |   |   |   xybar <= 10: Y (35.0/1.0)
|   |   |   |   |   |   |   |   xybar > 10
|   |   |   |   |   |   |   |   |   x2ybr <= 9: T (47.0/1.0)
|   |   |   |   |   |   |   |   |   x2ybr > 9: Y (5.0/1.0)
|   |   |   |   |   |   |   yegvx > 4
|   |   |   |   |   |   |   |   x-box <= 5
|   |   |   |   |   |   |   |   |   x-bar <= 6
|   |   |   |   |   |   |   |   |   |   yegvx <= 6: F (51.0/2.0)
|   |   |   |   |   |   |   |   |   |   yegvx > 6
|   |   |   |   |   |   |   |   |   |   |   width <= 4: F (3.0)
|   |   |   |   |   |   |   |   |   |   |   width > 4: P (10.0/1.0)
|   |   |   |   |   |   |   |   |   x-bar > 6: T (6.0/1.0)
|   |   |   |   |   |   |   |   x-box > 5
|   |   |   |   |   |   |   |   |   yegvx <= 7
|   |   |   |   |   |   |   |   |   |   x2ybr <= 9
|   |   |   |   |   |   |   |   |   |   |   y2bar <= 5: S (2.0/1.0)
|   |   |   |   |   |   |   |   |   |   |   y2bar > 5: T (6.0)
|   |   |   |   |   |   |   |   |   |   x2ybr > 9: Y (6.0)
|   |   |   |   |   |   |   |   |   yegvx > 7: V (6.0)
|   |   |   |   |   |   xy2br > 6
|   |   |   |   |   |   |   onpix <= 4
|   |   |   |   |   |   |   |   x2bar <= 6: S (15.0/2.0)
|   |   |   |   |   |   |   |   x2bar > 6: O (6.0/1.0)
|   |   |   |   |   |   |   onpix > 4: F (5.0)
|   |   |   |   |   y-ege > 5
|   |   |   |   |   |   x-ege <= 3
|   |   |   |   |   |   |   y-box <= 11: Z (16.0)
|   |   |   |   |   |   |   y-box > 11: C (2.0/1.0)
|   |   |   |   |   |   x-ege > 3: Y (4.0/1.0)
|   |   xy2br > 7
|   |   |   y-bar <= 4
|   |   |   |   y2bar <= 3
|   |   |   |   |   onpix <= 6
|   |   |   |   |   |   x2ybr <= 5: A (253.0/1.0)
|   |   |   |   |   |   x2ybr > 5
|   |   |   |   |   |   |   yegvx <= 8
|   |   |   |   |   |   |   |   y-box <= 8: Z (3.0/1.0)
|   |   |   |   |   |   |   |   y-box > 8: G (3.0)
|   |   |   |   |   |   |   yegvx > 8
|   |   |   |   |   |   |   |   xegvy <= 6: A (4.0)
|   |   |   |   |   |   |   |   xegvy > 6
|   |   |   |   |   |   |   |   |   y-ege <= 3: S (3.0)
|   |   |   |   |   |   |   |   |   y-ege > 3
|   |   |   |   |   |   |   |   |   |   x2bar <= 4: L (7.0)
|   |   |   |   |   |   |   |   |   |   x2bar > 4: E (2.0/1.0)
|   |   |   |   |   onpix > 6
|   |   |   |   |   |   y2bar <= 2: M (2.0)
|   |   |   |   |   |   y2bar > 2
|   |   |   |   |   |   |   y-box <= 7: Y (4.0)
|   |   |   |   |   |   |   y-box > 7: G (4.0/1.0)
|   |   |   |   y2bar > 3
|   |   |   |   |   xy2br <= 10
|   |   |   |   |   |   x2bar <= 2
|   |   |   |   |   |   |   y-bar <= 2: S (9.0)
|   |   |   |   |   |   |   y-bar > 2: L (10.0)
|   |   |   |   |   |   x2bar > 2
|   |   |   |   |   |   |   x2ybr <= 2
|   |   |   |   |   |   |   |   xegvy <= 7
|   |   |   |   |   |   |   |   |   y-box <= 7: Z (3.0)
|   |   |   |   |   |   |   |   |   y-box > 7
|   |   |   |   |   |   |   |   |   |   xybar <= 11
|   |   |   |   |   |   |   |   |   |   |   onpix <= 3: S (15.0/1.0)
|   |   |   |   |   |   |   |   |   |   |   onpix > 3
|   |   |   |   |   |   |   |   |   |   |   |   x-box <= 8: D (2.0)
|   |   |   |   |   |   |   |   |   |   |   |   x-box > 8: S (2.0)
|   |   |   |   |   |   |   |   |   |   xybar > 11
|   |   |   |   |   |   |   |   |   |   |   y2bar <= 4: A (2.0)
|   |   |   |   |   |   |   |   |   |   |   y2bar > 4: D (4.0)
|   |   |   |   |   |   |   |   xegvy > 7: Q (3.0/1.0)
|   |   |   |   |   |   |   x2ybr > 2
|   |   |   |   |   |   |   |   x2ybr <= 5
|   |   |   |   |   |   |   |   |   x-ege <= 4
|   |   |   |   |   |   |   |   |   |   x-ege <= 2
|   |   |   |   |   |   |   |   |   |   |   x2bar <= 3: Z (4.0)
|   |   |   |   |   |   |   |   |   |   |   x2bar > 3
|   |   |   |   |   |   |   |   |   |   |   |   y-box <= 6: Z (2.0)
|   |   |   |   |   |   |   |   |   |   |   |   y-box > 6: Q (2.0)
|   |   |   |   |   |   |   |   |   |   x-ege > 2
|   |   |   |   |   |   |   |   |   |   |   xybar <= 11
|   |   |   |   |   |   |   |   |   |   |   |   xegvy <= 7
|   |   |   |   |   |   |   |   |   |   |   |   |   onpix <= 3
|   |   |   |   |   |   |   |   |   |   |   |   |   |   x-ege <= 3: Q (4.0)
|   |   |   |   |   |   |   |   |   |   |   |   |   |   x-ege > 3: S (3.0)
|   |   |   |   |   |   |   |   |   |   |   |   |   onpix > 3
|   |   |   |   |   |   |   |   |   |   |   |   |   |   xybar <= 8: Q (11.0)
|   |   |   |   |   |   |   |   |   |   |   |   |   |   xybar > 8
|   |   |   |   |   |   |   |   |   |   |   |   |   |   |   xybar <= 9: O (7.0)
|   |   |   |   |   |   |   |   |   |   |   |   |   |   |   xybar > 9: Q (4.0)
|   |   |   |   |   |   |   |   |   |   |   |   xegvy > 7: Q (28.0/1.0)
|   |   |   |   |   |   |   |   |   |   |   xybar > 11
|   |   |   |   |   |   |   |   |   |   |   |   xybar <= 12
|   |   |   |   |   |   |   |   |   |   |   |   |   yegvx <= 11: Z (7.0/1.0)
|   |   |   |   |   |   |   |   |   |   |   |   |   yegvx > 11: Q (9.0/1.0)
|   |   |   |   |   |   |   |   |   |   |   |   xybar > 12: I (4.0/1.0)
|   |   |   |   |   |   |   |   |   x-ege > 4
|   |   |   |   |   |   |   |   |   |   y-ege <= 5: D (6.0/1.0)
|   |   |   |   |   |   |   |   |   |   y-ege > 5
|   |   |   |   |   |   |   |   |   |   |   xybar <= 8: Q (13.0)
|   |   |   |   |   |   |   |   |   |   |   xybar > 8: B (2.0/1.0)
|   |   |   |   |   |   |   |   x2ybr > 5
|   |   |   |   |   |   |   |   |   x2bar <= 5
|   |   |   |   |   |   |   |   |   |   x2ybr <= 6: S (4.0)
|   |   |   |   |   |   |   |   |   |   x2ybr > 6: U (2.0/1.0)
|   |   |   |   |   |   |   |   |   x2bar > 5
|   |   |   |   |   |   |   |   |   |   xybar <= 6: Q (6.0)
|   |   |   |   |   |   |   |   |   |   xybar > 6: Y (5.0/1.0)
|   |   |   |   |   xy2br > 10
|   |   |   |   |   |   x2bar <= 4
|   |   |   |   |   |   |   y-ege <= 6: L (40.0)
|   |   |   |   |   |   |   y-ege > 6
|   |   |   |   |   |   |   |   y-box <= 12: Q (3.0/1.0)
|   |   |   |   |   |   |   |   y-box > 12: L (4.0)
|   |   |   |   |   |   x2bar > 4
|   |   |   |   |   |   |   x-ege <= 6
|   |   |   |   |   |   |   |   xybar <= 12: Q (5.0)
|   |   |   |   |   |   |   |   xybar > 12: D (3.0)
|   |   |   |   |   |   |   x-ege > 6: A (2.0/1.0)
|   |   |   y-bar > 4
|   |   |   |   x2bar <= 4
|   |   |   |   |   x-ege <= 4
|   |   |   |   |   |   xybar <= 10
|   |   |   |   |   |   |   xegvy <= 8
|   |   |   |   |   |   |   |   xy2br <= 9
|   |   |   |   |   |   |   |   |   x2ybr <= 5
|   |   |   |   |   |   |   |   |   |   y-ege <= 7
|   |   |   |   |   |   |   |   |   |   |   x2bar <= 2
|   |   |   |   |   |   |   |   |   |   |   |   y2bar <= 7
|   |   |   |   |   |   |   |   |   |   |   |   |   xybar <= 7: X (4.0)
|   |   |   |   |   |   |   |   |   |   |   |   |   xybar > 7
|   |   |   |   |   |   |   |   |   |   |   |   |   |   width <= 4: H (3.0/2.0)
|   |   |   |   |   |   |   |   |   |   |   |   |   |   width > 4
|   |   |   |   |   |   |   |   |   |   |   |   |   |   |   yegvx <= 8
|   |   |   |   |   |   |   |   |   |   |   |   |   |   |   |   x2bar <= 1: K (9.0)
|   |   |   |   |   |   |   |   |   |   |   |   |   |   |   |   x2bar > 1
|   |   |   |   |   |   |   |   |   |   |   |   |   |   |   |   |   y2bar <= 6: H (3.0)
|   |   |   |   |   |   |   |   |   |   |   |   |   |   |   |   |   y2bar > 6: K (3.0/1.0)
|   |   |   |   |   |   |   |   |   |   |   |   |   |   |   yegvx > 8: K (30.0)
|   |   |   |   |   |   |   |   |   |   |   |   y2bar > 7: X (16.0/1.0)
|   |   |   |   |   |   |   |   |   |   |   x2bar > 2
|   |   |   |   |   |   |   |   |   |   |   |   xybar <= 9
|   |   |   |   |   |   |   |   |   |   |   |   |   y-bar <= 6
|   |   |   |   |   |   |   |   |   |   |   |   |   |   y2bar <= 1: A (4.0)
|   |   |   |   |   |   |   |   |   |   |   |   |   |   y2bar > 1
|   |   |   |   |   |   |   |   |   |   |   |   |   |   |   x-ege <= 3: O (6.0/1.0)
|   |   |   |   |   |   |   |   |   |   |   |   |   |   |   x-ege > 3: H (3.0)
|   |   |   |   |   |   |   |   |   |   |   |   |   y-bar > 6
|   |   |   |   |   |   |   |   |   |   |   |   |   |   xybar <= 7
|   |   |   |   |   |   |   |   |   |   |   |   |   |   |   yegvx <= 7: D (6.0/1.0)
|   |   |   |   |   |   |   |   |   |   |   |   |   |   |   yegvx > 7
|   |   |   |   |   |   |   |   |   |   |   |   |   |   |   |   yegvx <= 9: K (8.0/1.0)
|   |   |   |   |   |   |   |   |   |   |   |   |   |   |   |   yegvx > 9: E (2.0)
|   |   |   |   |   |   |   |   |   |   |   |   |   |   xybar > 7: R (26.0/1.0)
|   |   |   |   |   |   |   |   |   |   |   |   xybar > 9
|   |   |   |   |   |   |   |   |   |   |   |   |   x2bar <= 3: H (21.0/2.0)
|   |   |   |   |   |   |   |   |   |   |   |   |   x2bar > 3: S (2.0/1.0)
|   |   |   |   |   |   |   |   |   |   y-ege > 7
|   |   |   |   |   |   |   |   |   |   |   y-ege <= 9
|   |   |   |   |   |   |   |   |   |   |   |   y-bar <= 6: Q (9.0)
|   |   |   |   |   |   |   |   |   |   |   |   y-bar > 6: E (2.0/1.0)
|   |   |   |   |   |   |   |   |   |   |   y-ege > 9: S (4.0)
|   |   |   |   |   |   |   |   |   x2ybr > 5
|   |   |   |   |   |   |   |   |   |   xybar <= 9
|   |   |   |   |   |   |   |   |   |   |   yegvx <= 9
|   |   |   |   |   |   |   |   |   |   |   |   yegvx <= 6
|   |   |   |   |   |   |   |   |   |   |   |   |   y2bar <= 6
|   |   |   |   |   |   |   |   |   |   |   |   |   |   x2bar <= 3: A (2.0/1.0)
|   |   |   |   |   |   |   |   |   |   |   |   |   |   x2bar > 3
|   |   |   |   |   |   |   |   |   |   |   |   |   |   |   y-bar <= 8: J (2.0)
|   |   |   |   |   |   |   |   |   |   |   |   |   |   |   y-bar > 8
|   |   |   |   |   |   |   |   |   |   |   |   |   |   |   |   y-box <= 6: J (3.0/1.0)
|   |   |   |   |   |   |   |   |   |   |   |   |   |   |   |   y-box > 6: I (2.0)
|   |   |   |   |   |   |   |   |   |   |   |   |   y2bar > 6
|   |   |   |   |   |   |   |   |   |   |   |   |   |   xybar <= 8: T (11.0)
|   |   |   |   |   |   |   |   |   |   |   |   |   |   xybar > 8: X (2.0)
|   |   |   |   |   |   |   |   |   |   |   |   yegvx > 6
|   |   |   |   |   |   |   |   |   |   |   |   |   x-bar <= 6
|   |   |   |   |   |   |   |   |   |   |   |   |   |   xegvy <= 7: X (6.0)
|   |   |   |   |   |   |   |   |   |   |   |   |   |   xegvy > 7
|   |   |   |   |   |   |   |   |   |   |   |   |   |   |   x-ege <= 2: L (3.0/1.0)
|   |   |   |   |   |   |   |   |   |   |   |   |   |   |   x-ege > 2: K (7.0)
|   |   |   |   |   |   |   |   |   |   |   |   |   x-bar > 6
|   |   |   |   |   |   |   |   |   |   |   |   |   |   x2ybr <= 6
|   |   |   |   |   |   |   |   |   |   |   |   |   |   |   y-ege <= 7
|   |   |   |   |   |   |   |   |   |   |   |   |   |   |   |   xegvy <= 7
|   |   |   |   |   |   |   |   |   |   |   |   |   |   |   |   |   x-bar <= 7: X (7.0)
|   |   |   |   |   |   |   |   |   |   |   |   |   |   |   |   |   x-bar > 7
|   |   |   |   |   |   |   |   |   |   |   |   |   |   |   |   |   |   x-box <= 3: X (3.0)
|   |   |   |   |   |   |   |   |   |   |   |   |   |   |   |   |   |   x-box > 3: J (2.0)
|   |   |   |   |   |   |   |   |   |   |   |   |   |   |   |   xegvy > 7: X (249.0/1.0)
|   |   |   |   |   |   |   |   |   |   |   |   |   |   |   y-ege > 7
|   |   |   |   |   |   |   |   |   |   |   |   |   |   |   |   x2bar <= 3: X (11.0)
|   |   |   |   |   |   |   |   |   |   |   |   |   |   |   |   x2bar > 3
|   |   |   |   |   |   |   |   |   |   |   |   |   |   |   |   |   y-bar <= 7: S (2.0/1.0)
|   |   |   |   |   |   |   |   |   |   |   |   |   |   |   |   |   y-bar > 7
|   |   |   |   |   |   |   |   |   |   |   |   |   |   |   |   |   |   y2bar <= 4: I (2.0)
|   |   |   |   |   |   |   |   |   |   |   |   |   |   |   |   |   |   y2bar > 4
|   |   |   |   |   |   |   |   |   |   |   |   |   |   |   |   |   |   |   onpix <= 4
|   |   |   |   |   |   |   |   |   |   |   |   |   |   |   |   |   |   |   |   y-box <= 4: J (2.0)
|   |   |   |   |   |   |   |   |   |   |   |   |   |   |   |   |   |   |   |   y-box > 4: I (3.0/1.0)
|   |   |   |   |   |   |   |   |   |   |   |   |   |   |   |   |   |   |   onpix > 4: J (5.0)
|   |   |   |   |   |   |   |   |   |   |   |   |   |   x2ybr > 6
|   |   |   |   |   |   |   |   |   |   |   |   |   |   |   y-bar <= 8
|   |   |   |   |   |   |   |   |   |   |   |   |   |   |   |   onpix <= 4
|   |   |   |   |   |   |   |   |   |   |   |   |   |   |   |   |   y-bar <= 6: I (2.0/1.0)
|   |   |   |   |   |   |   |   |   |   |   |   |   |   |   |   |   y-bar > 6: X (6.0)
|   |   |   |   |   |   |   |   |   |   |   |   |   |   |   |   onpix > 4: L (5.0/1.0)
|   |   |   |   |   |   |   |   |   |   |   |   |   |   |   y-bar > 8: I (6.0)
|   |   |   |   |   |   |   |   |   |   |   yegvx > 9
|   |   |   |   |   |   |   |   |   |   |   |   xybar <= 7
|   |   |   |   |   |   |   |   |   |   |   |   |   x-bar <= 6: K (6.0)
|   |   |   |   |   |   |   |   |   |   |   |   |   x-bar > 6
|   |   |   |   |   |   |   |   |   |   |   |   |   |   y-ege <= 6
|   |   |   |   |   |   |   |   |   |   |   |   |   |   |   x-box <= 2: K (2.0)
|   |   |   |   |   |   |   |   |   |   |   |   |   |   |   x-box > 2: E (3.0)
|   |   |   |   |   |   |   |   |   |   |   |   |   |   y-ege > 6: L (11.0/1.0)
|   |   |   |   |   |   |   |   |   |   |   |   xybar > 7
|   |   |   |   |   |   |   |   |   |   |   |   |   y2bar <= 3: S (3.0/1.0)
|   |   |   |   |   |   |   |   |   |   |   |   |   y2bar > 3: C (3.0/1.0)
|   |   |   |   |   |   |   |   |   |   xybar > 9
|   |   |   |   |   |   |   |   |   |   |   y2bar <= 7
|   |   |   |   |   |   |   |   |   |   |   |   x-ege <= 2
|   |   |   |   |   |   |   |   |   |   |   |   |   x-box <= 3: E (2.0/1.0)
